the -0.202315 -0.004347 1.352751 -0.153561 -0.205346 -1.188952 -0.266898 0.160261 -0.316494 1.165244 -0.192481 1.185339 0.172318 -0.467638 0.343159 -0.278446 -0.257223 -1.436287 -0.748178 0.340009 -0.017647 -0.236641 0.347990 0.054600 -0.580151 -0.334607 -0.370695 -0.962698 -0.316826 -1.013568 2.025031 -0.821494 -0.019487 1.881638 -0.819219 0.229091 -1.475257 -0.514169 0.028910 0.557751 0.157231 -0.246786 0.306246 1.485917 -1.141911 -1.313883 -0.455073 -0.052338 -0.712797 -0.619108
of -0.575198 -0.111546 1.375865 -0.555762 -0.188184 -0.907051 -0.219732 0.597713 0.138219 -0.604852 0.221312 0.295589 0.326475 -0.015173 0.629702 -0.455061 -0.597854 -1.194585 -0.301705 0.725949 -1.017010 0.111587 0.067369 0.351528 -0.410194 -0.315259 -0.103327 -0.932048 -0.390216 -0.795076 2.308645 -0.837964 -0.139174 2.037311 -0.397478 -0.384437 -1.270262 -0.717990 -0.241955 1.168855 1.087893 0.180510 0.981688 0.724029 0.344997 -0.838896 -1.179878 -0.234418 -1.463432 -0.513961
and 0.101263 -0.595352 1.419870 0.231428 -1.217457 -0.234857 0.060607 -0.252313 -0.681476 0.147434 0.446725 0.851325 -0.355949 0.448534 1.121245 -0.607463 0.398972 -1.487850 0.585046 0.822965 -0.803869 0.251244 0.272026 -1.669029 -0.303981 -0.113963 -0.326178 -0.039217 -0.385157 -1.714816 1.601349 -0.555655 0.222823 1.728915 -1.527017 -0.096846 -1.264868 -0.314150 -0.734056 1.051967 -0.952699 -0.562367 -0.773372 -0.044626 0.290021 -0.135703 -1.039353 0.430114 -0.170812 -1.960730
in 0.233307 0.128904 2.075391 0.145511 -0.234542 -0.080980 -0.279710 0.991896 -0.833558 0.729694 0.936513 -0.055968 -0.709811 1.257965 -0.050624 -0.546805 -0.211425 -1.368389 -0.282504 1.087417 -0.777127 1.423796 -0.377597 0.094397 -1.464516 -0.172470 0.664343 -0.526327 -0.460051 -0.854229 1.730248 0.110780 0.007239 1.452518 0.388672 1.715521 -0.658304 -0.971246 -0.399296 1.136082 0.604018 0.121537 -0.207076 0.516577 -0.884367 -0.385571 -0.358481 1.081507 -0.773796 -1.512699
a 1.250815 -1.045088 0.940670 0.742361 0.624202 0.168869 0.039293 -0.333094 -0.744651 -0.815816 -1.027131 0.666315 0.920612 -0.093121 -0.103342 0.445413 -0.476544 -1.535652 -0.557747 0.864054 -1.494619 1.445053 -0.121657 0.170403 -1.111966 -1.088754 -0.178584 -0.142931 0.842485 -1.316894 1.712067 -0.349795 -0.004794 1.546904 -0.638707 0.667864 -0.930067 -0.968285 -0.171528 0.219190 0.843776 -1.517938 -0.438813 0.937606 -1.164510 -0.795618 -0.588929 0.245013 -1.423096 -0.409259
to 0.190413 0.516401 0.578032 0.369196 -0.210773 0.873264 -0.193119 0.686408 1.204478 0.090380 0.423793 1.521495 0.333244 1.309255 2.146398 0.163533 -0.552951 -1.506066 0.631260 0.372807 0.340895 0.650547 0.662717 0.147729 -0.817694 -1.204464 -0.725474 -0.514866 -0.843767 -1.570441 1.899951 0.033218 0.500766 1.766745 -0.713613 0.135409 -0.749345 -1.354118 -0.513070 0.233974 0.683861 -0.162698 0.685962 1.286947 -2.370231 -0.351806 -0.736480 0.719964 0.364641 -1.134908
is 0.408110 0.064151 0.891050 0.586267 -1.047785 0.469869 -1.485889 -0.431100 -0.748272 0.427212 0.405165 1.269569 -0.007464 0.934357 -0.598296 -0.145238 -0.291998 -1.049897 -0.052251 0.063651 -0.768575 1.049465 0.232365 -0.186157 0.602921 -0.848422 0.018537 -0.347142 0.399640 -0.836021 1.117454 -0.630910 -0.096315 0.974196 -0.869530 1.154664 -0.875040 -1.459994 -0.129196 0.524118 2.049415 -0.773053 0.293256 0.956588 -0.885108 -0.753624 -0.374411 -0.700170 -1.601060 -0.555459
that 0.120124 -0.697107 0.679815 0.567467 0.188199 -0.381753 -0.722879 0.766445 0.669310 -0.627798 -0.021295 0.536945 0.215707 1.483658 -0.119390 -1.191544 -0.000524 -0.952362 -0.948806 -0.484960 -0.945868 -0.203120 0.283339 0.357992 -0.453290 -0.831833 0.054809 -1.415963 0.413209 -1.133757 1.893807 -0.060173 1.444814 1.582867 -1.163439 0.088301 -0.638874 -1.272633 0.034288 1.412534 0.134585 -0.854566 -0.166260 0.402222 -0.597554 -0.469407 -0.808325 -0.020694 -0.555980 -1.070323
are 0.868594 -0.394906 1.512724 -0.029625 -0.597223 0.137977 -1.312389 0.408161 -0.396843 1.172401 0.409059 2.317068 0.633801 0.528307 -0.432697 -0.511281 -0.751213 -1.166835 0.016692 1.012795 -1.374855 0.809175 -0.242777 -0.253394 0.855855 -0.402860 0.377900 -1.217096 -0.734778 -0.876920 0.600366 0.263377 1.199874 0.390383 -0.657608 -0.008503 -0.746957 -0.770169 -0.572196 1.483036 1.058990 -0.250886 0.538679 0.655418 0.038014 -0.092510 -1.116671 0.249632 0.428975 -1.439517
as 0.557235 -0.350188 0.490183 0.797094 0.534985 0.136730 -0.158487 1.351599 -0.494271 1.169499 -0.112527 0.757065 0.169433 0.752236 0.129508 0.257421 -0.594359 -0.595260 0.465960 0.786557 -0.824796 -0.878975 0.315029 -0.917778 -0.124605 -0.592646 -0.063176 -1.066773 -0.320102 -0.418179 0.455527 -1.137141 1.225428 1.669224 -1.211075 0.231150 0.213583 -0.849151 0.216000 0.866205 0.991814 -0.008969 -0.897808 0.539456 -0.068268 -0.703902 -1.051925 1.053354 -1.281046 -0.644535
s -0.264109 0.454182 -1.289472 -0.622624 -0.228001 0.704587 -0.678824 1.134951 0.566172 0.090458 -0.838399 0.220243 0.197869 0.367772 0.043087 -0.563601 -0.465377 -0.574828 -2.146404 1.991186 -1.194053 0.440178 -0.205291 1.074575 -0.867491 0.288278 1.749579 -0.416477 1.566914 -1.073464 0.735959 -1.988220 -1.136522 1.230695 -0.207873 -0.832873 -0.859125 -2.205013 -2.221486 0.759272 -0.576181 -0.461023 -1.122523 0.990089 -1.010285 -0.528309 0.963353 0.823601 -0.350162 -1.294881
for 0.501340 -0.167330 0.225981 1.319997 -1.343559 0.350156 -0.008394 0.786334 0.393106 0.116121 0.377651 0.438521 0.006301 -0.570475 -0.028465 0.125231 -0.554377 -0.995634 -0.289372 0.516293 -0.709182 1.247699 -0.013962 0.480506 -0.641603 -0.524768 -0.405065 -0.188690 -0.983129 -1.191823 -0.146210 -1.464230 0.325984 1.877345 -1.621960 1.191821 -0.890766 0.239246 -1.098177 1.702913 0.967151 -0.803757 0.567168 1.137110 0.204308 -1.160100 -1.301830 0.631668 0.205766 0.021079
by 0.004979 -0.170780 1.734031 -0.167284 -0.235417 0.132893 0.102252 0.461953 -0.099444 0.494377 -1.082644 1.953044 0.505278 1.234224 -1.082080 0.254047 -0.996205 -1.295808 0.131821 -0.136709 -0.750798 0.617462 -0.167805 0.458924 -0.116319 -0.660936 -1.166111 -0.261980 0.981993 -0.810448 0.853685 -1.396653 -0.870985 1.732640 -0.567301 0.320410 -0.849382 -0.109275 -0.199425 1.306542 0.844211 0.537017 0.217425 -0.298331 0.361419 0.164896 -0.841369 -0.782961 -0.364327 -2.173225
from -0.772282 1.349018 1.018301 0.096444 -0.837437 -0.368470 0.110674 0.149568 -0.593732 1.722975 0.548583 -0.303012 0.736596 1.973234 -0.116869 0.821221 0.378228 -1.619187 -0.618635 1.204130 -0.936966 -0.217181 -0.850595 -0.234006 -0.733860 -1.227928 -0.704382 -0.752804 0.713775 -0.680322 0.787617 -0.057702 -0.398250 1.391588 -1.105726 -0.833456 -1.155177 -0.830779 -0.505982 0.896476 0.412744 -0.197843 -0.431055 0.086790 -0.443173 -0.827993 -1.029148 0.410462 0.147284 -0.997109
with 0.366505 -0.306004 0.302552 0.196797 0.166627 -0.254791 0.037474 0.554847 -0.314182 -0.271588 0.312239 1.138551 -0.173442 0.802874 -0.796836 1.526831 -1.799674 -1.198856 -0.993102 1.286200 -0.197525 1.072692 0.715145 -1.306325 -0.473947 0.249368 -0.166629 -0.107765 0.198497 -0.890397 2.349194 -0.605160 -0.039971 1.929154 -0.232715 -0.576577 0.239728 -0.924098 -0.611937 1.610521 0.533687 -0.654961 -0.473615 -0.815965 -0.983591 0.023084 0.142637 -0.742475 0.235238 0.378787
can 0.713740 -0.334944 0.983101 0.150565 0.175301 0.317054 0.114259 0.773641 0.858691 0.552309 -0.139222 0.296701 -0.488973 1.440725 0.523675 0.374883 -1.068495 0.106907 0.207447 1.388190 -0.224326 0.037637 -1.128356 -0.124917 -0.718197 -0.784137 -0.375831 -0.821638 0.210350 -0.362056 1.372252 -0.472473 0.455512 0.710041 -1.437483 0.002643 -0.247193 -0.792426 -1.219268 0.463850 -0.189217 -0.418808 -0.749690 0.134876 -0.358854 -1.068286 -0.765975 -0.210513 -0.717723 -0.912504
cells 0.116397 -0.382566 1.096904 -1.663850 -0.672170 -0.684076 -0.556651 1.172919 -0.567288 -0.373019 0.736885 -0.140627 0.634931 0.291783 -0.593396 0.280841 -1.176532 -1.334205 -0.072873 -0.087908 -0.290119 0.209356 -0.681307 -0.653790 -0.744828 -1.850664 -0.687575 -1.101559 0.345940 -0.769576 -0.416033 0.041892 0.983439 1.677927 -1.154620 -0.538987 -0.294789 -0.919948 -1.202740 0.870019 -0.372534 0.856078 0.072744 1.225734 -1.258166 0.079760 0.096572 -0.627393 -0.169877 -0.948921
this 0.337355 0.585236 0.004910 -0.200867 -0.733228 -0.247205 -0.237358 0.278843 0.333023 -0.281711 0.569591 0.343123 0.230735 0.282048 -1.000525 0.184722 -0.371363 -0.500852 -0.415560 0.022579 -0.912785 0.191306 0.630202 0.058738 -1.327052 -0.775637 -0.426681 -0.821125 -0.170876 -1.273269 1.360540 -1.141195 0.110284 1.622947 -0.337084 1.301740 -0.125732 -1.142884 -0.245052 0.207207 0.827389 -0.921093 0.334459 0.387420 -0.713551 -0.408581 -0.705173 0.046488 -1.119464 -0.972187
have 0.505827 0.017342 0.461375 0.475275 -0.509966 -0.756790 0.081339 1.092691 0.033776 0.033261 -0.227794 0.122714 0.843745 0.251289 0.982004 0.208364 -1.031645 -0.384407 0.107088 0.533720 -1.040972 0.290948 -0.302402 -0.394414 -0.458680 0.084514 0.529769 -0.992399 0.278786 -1.868315 1.261196 -0.218861 1.154455 1.210797 -1.097892 0.367814 0.325992 -0.869906 0.973608 1.691599 0.658736 -0.522634 0.027155 0.197169 0.623508 0.187849 -0.196483 -0.131291 -0.257180 -1.818844
an -0.845238 1.473958 0.694127 0.468512 0.083176 -0.658762 -0.881364 1.301144 0.132991 -0.797178 0.018568 0.053219 0.478670 0.636426 -0.000350 -0.505181 -0.839988 -0.641637 -0.025247 0.093470 -1.236719 0.262080 -0.148183 -0.661885 0.472662 -0.365645 -0.185122 0.105536 -0.064888 -0.573323 0.697623 -1.564962 0.027367 1.385009 -1.156234 1.117105 -0.280288 -1.815385 -0.536376 0.656612 -0.270443 -1.133099 -0.012330 -0.296337 -1.533474 -1.265065 0.594311 -0.282920 -0.831563 -0.860793
on -0.173474 -0.294003 0.707398 0.470449 -0.090150 0.728626 -0.132127 0.378812 0.262480 0.690473 0.039645 0.874803 1.080677 0.349409 -0.678241 -0.718712 -1.001695 -1.731910 -0.117615 1.054000 -0.996201 -0.700559 0.942567 0.033624 -0.765851 0.738217 -0.329775 -0.616473 0.070651 -1.731438 0.373232 1.298351 1.154115 2.023780 -1.010485 0.350299 -0.451089 -0.132154 -0.767767 1.398551 -0.318138 -0.155800 -0.182652 1.436501 -0.064026 -1.288048 0.203770 0.538113 -0.158231 -0.035401
it 0.635374 0.271885 0.790198 0.622776 -1.359235 0.430475 -0.361203 0.275616 -0.019662 -0.408830 -0.060904 0.133055 -0.356374 0.786047 -0.315357 -0.712797 -0.577416 -1.140012 0.563900 -0.027247 0.084172 -0.207052 0.439404 -0.270683 -0.426952 -1.874890 0.261366 -0.076909 0.806812 -1.279646 0.649152 -0.546717 0.120911 1.865992 -1.510970 0.184682 -0.424322 -1.130148 0.019537 0.095667 0.213519 -1.003244 -0.493058 0.537304 -1.369134 -0.864911 -0.180702 -0.349269 -0.156697 -0.351507
figure 0.111938 -0.096406 1.218465 -0.108021 -0.491014 -0.992260 -0.466802 0.146982 -0.054004 0.649825 0.471812 0.392349 0.684785 -0.299338 -0.649179 -0.198240 -0.312280 -0.614178 0.231791 0.845419 -0.770615 0.194603 0.243140 -0.608671 -0.551364 -0.507121 -0.562114 -0.943141 0.313065 -1.426729 1.334755 -0.487729 -0.243592 1.032677 -0.592207 0.057751 -0.177802 -0.807818 -0.528411 0.534649 0.163922 -0.692373 -0.685216 0.621893 0.016223 -0.293726 -0.398959 0.450223 -0.760576 -1.470311
or 0.048550 -0.529539 1.091106 0.667414 -0.494518 -0.839778 0.393397 0.202054 -0.035626 0.451311 -0.751485 0.594379 0.367416 0.596801 0.072559 0.601738 -1.706397 -0.650749 0.174882 0.627493 -1.350083 1.067892 0.255524 -0.928685 -0.039307 -1.094967 -0.086558 -0.738887 -0.228845 -0.394175 0.269486 -0.362604 0.046870 1.417269 -0.614099 -0.226978 -0.979056 -0.895886 -0.623274 0.597353 0.146851 0.271508 -0.188270 0.034523 0.135364 -1.568659 -0.025575 0.050589 0.012758 -0.339844
which -0.018803 -0.280231 1.513173 -0.546040 -0.217851 0.236760 -0.486240 0.343268 -0.247113 0.006823 -0.338054 0.092772 0.161721 1.181462 -0.365895 -0.540563 -0.183791 -0.874309 0.145219 0.158117 -0.881801 0.104509 0.175256 -0.235103 -0.148388 -1.097459 -0.282436 -0.794034 0.316181 -0.465121 1.424789 -0.278872 0.399573 1.406389 -0.739789 -0.182651 -0.152808 -0.880995 -0.469247 0.341858 0.033017 -0.595842 -0.654341 0.534797 -0.725062 -0.302602 -0.858496 0.251060 -0.212755 -0.416786
be 0.951498 0.356227 0.839425 0.573589 -1.169637 0.783591 0.516152 0.006849 -0.145408 0.752803 -0.703024 0.662250 0.186231 1.914300 0.054936 0.427758 -1.128274 0.065166 -0.358404 0.627895 -0.464879 0.816152 -0.429288 0.577134 0.878272 -0.832110 0.142008 -0.849610 -0.118485 -0.629638 1.089757 -0.811682 0.430787 0.511892 -1.570273 0.286125 -0.065154 -0.760025 -0.384036 1.215771 0.599186 -0.344646 0.544669 0.157693 -0.783697 -0.875111 -0.232777 -0.292985 -0.557714 -1.281448
their 0.282077 -0.334935 0.857267 0.064049 0.787460 0.652213 -0.495856 0.145864 0.466619 0.573320 1.670250 0.380964 -0.378549 0.112029 0.770143 0.005537 -1.902327 -1.123518 -0.648281 0.718951 -1.277620 -1.201792 -0.877867 -0.096440 -0.498313 0.166257 -0.602849 0.222031 -0.108466 -1.138055 0.490748 -0.191386 0.237147 2.132925 -0.838041 -0.192743 -0.318928 -0.634283 -0.637111 0.972624 0.299172 -0.303524 0.510683 0.227769 0.290757 -0.233821 -0.617645 -0.007479 0.385161 -1.184383
cell 1.058445 -0.280513 0.757260 -0.462072 0.038308 -0.525203 0.036635 0.630566 -1.121999 -0.326048 0.485374 0.099785 0.008411 -0.039672 -0.053180 -0.012204 -0.155320 -1.751692 0.313139 0.004689 -0.482093 -0.168949 0.659785 0.142514 -0.229642 -2.404559 0.174036 -0.891402 0.756529 -1.193794 -0.190669 -0.704728 0.349028 1.831240 0.142988 -0.341508 -0.875814 -1.010076 -2.052511 0.941469 -0.064559 0.602019 0.356930 0.942132 -0.612725 -0.984300 0.701536 -1.083749 -0.870583 -1.724407
they 0.890980 -0.266751 1.017346 0.314161 -0.123683 -0.313158 0.033437 0.709221 1.045809 0.705791 0.922188 0.258971 -0.543877 1.132685 -0.114684 -0.620849 -1.563737 -0.848055 -0.470567 0.689353 -0.257947 -0.479376 -0.791601 -0.301763 -0.552262 -0.622911 0.580903 -0.711462 0.010460 -0.547474 0.649450 0.243554 1.043387 1.205927 -1.494134 0.259761 -0.447426 -0.988575 -0.552982 1.008613 0.088073 -0.592464 -0.392028 0.342106 -0.621881 0.272321 -0.535778 -0.205278 0.581415 -0.943818
species 0.182400 0.822217 0.828841 -0.344294 -0.106479 0.377353 -0.682668 -0.042770 0.417180 -0.016597 0.241373 0.074921 1.571065 0.466894 0.253074 0.516797 -1.437325 -0.527871 -0.028667 0.899890 -1.241276 -0.568381 0.178911 1.357467 -0.318899 -0.615128 0.969619 -0.885270 -0.405311 -0.068138 1.898704 1.050158 -0.100877 1.299561 -0.472155 0.811044 -0.222017 -0.584055 0.195710 0.813342 0.573994 -1.460066 -0.869330 -0.302387 1.073279 -0.849529 -0.761283 -0.412736 0.801910 -1.043135
these 0.176670 -0.496207 1.202440 -0.056076 -0.044562 -0.464114 -0.083190 1.029921 0.332150 0.796250 0.690507 0.313881 0.102237 0.481290 0.038583 -0.189684 -0.848503 -0.697967 -0.010282 0.334766 -0.472031 0.457754 0.253820 0.761834 -0.601558 -0.379681 -0.131526 -0.910855 -0.423456 -1.206883 1.121830 0.129760 1.238841 1.139629 -0.772421 -0.409028 0.123440 -0.385447 -0.736674 1.217774 0.006624 -0.113737 0.143066 0.371259 -0.109174 0.041660 -0.786436 0.074299 0.175945 -0.634652
not 1.218415 -0.861402 0.692370 0.754258 -0.683196 -0.305825 -0.791073 0.575530 1.423903 0.270865 0.459952 0.925082 -0.568726 0.757902 -0.236018 -0.257765 -0.610390 -0.265268 -0.122826 0.665022 0.147057 -0.310761 -0.892511 0.090611 -0.237094 -1.041322 0.727404 -1.585726 0.183482 -0.609224 0.473627 0.138566 -0.057120 1.237788 -1.677900 0.989426 -1.116639 -0.917533 0.155081 0.953039 0.677060 -0.837955 0.012072 0.446854 -0.790900 -0.333362 -0.187937 -0.804861 -0.198678 -0.777632
at 0.025764 -0.768396 1.165189 0.374923 -1.714400 -1.140962 0.014530 -0.021971 -0.124018 0.534888 -0.362705 0.096232 -0.412733 0.530371 0.001147 -0.970199 -1.901074 -0.559270 -0.993529 1.700769 0.379277 -0.265683 -0.193808 0.484708 0.264377 -0.269487 -0.554667 -0.681585 -0.084547 -1.735581 1.019733 -0.595064 0.005959 0.941528 1.124132 0.650272 -0.342384 -0.249912 -0.231046 0.753427 0.334871 -0.767667 -0.451627 1.495672 -0.573375 -0.882486 -0.813816 -0.288249 -0.456535 -0.760984
other -0.373696 -0.700229 1.169762 0.353152 0.164728 -0.232603 -0.173688 1.156874 -0.139553 0.672735 0.363279 0.030536 0.384958 0.467106 0.242453 0.421109 -0.304453 -1.106840 0.144389 0.671958 -0.748732 -0.202882 0.186843 -0.312261 -0.186682 -0.423319 0.254073 -0.804521 -0.391309 -1.239168 0.932168 0.259874 0.835037 1.313006 -1.028846 -0.595474 -0.645417 -0.741584 -0.378682 1.608459 0.504899 -0.244089 -0.170343 -0.404704 -0.030136 -0.561434 -0.329238 -0.185189 0.442107 -0.481802
one 0.004329 0.485975 0.615804 0.522359 0.247340 -0.457075 0.390099 0.762405 -0.067722 0.139860 0.579693 -0.333919 1.329044 1.189858 -0.086235 0.281427 -0.301284 -0.840399 -0.463237 1.215897 -1.107415 0.575544 0.384424 -0.170449 0.001607 -1.287074 -0.271360 -0.856372 -0.297765 -1.531424 0.737962 -0.273959 0.061473 1.132170 -0.287253 0.505292 -0.696886 -1.295354 -0.237576 0.346641 0.960393 -1.071535 -0.354335 0.317262 -0.646805 -1.045263 0.026556 -0.395658 -0.023533 -0.100904
some 0.293928 -0.210289 1.196008 -0.039668 -0.637644 -0.160716 -0.638259 0.785212 0.261193 0.415280 0.427326 0.083983 -0.313188 -0.297552 -0.155116 0.313866 -0.806322 -0.825052 0.135942 0.436061 -1.346628 -0.209293 -0.665554 0.518456 -0.840580 -0.882168 0.070127 -1.046339 -1.115575 -0.777331 0.906894 0.019362 0.364919 1.407775 -0.236232 -0.320733 -0.186514 -1.085359 -0.600679 0.866909 0.464185 -0.330992 -0.273848 -0.138921 0.417118 -0.334720 -0.820041 0.256212 0.210802 -0.819496
we 0.997951 -0.075906 0.472212 0.465866 -0.683604 0.046885 -0.699079 0.697428 0.579377 0.432685 -0.032196 -0.665797 0.351222 0.322974 -0.124719 -0.358091 -0.442850 0.088639 -0.616588 1.615299 0.099218 -1.045688 1.214877 0.369778 -0.238543 -1.239892 -0.633162 -1.246502 -1.315530 -1.170983 1.070576 -0.404597 0.304281 1.081133 -1.304384 0.681438 1.553320 -0.450299 -0.275186 1.330130 -0.060366 0.012949 -0.222947 0.477802 -0.667102 -0.766251 -0.969948 0.166317 -0.922988 -1.121149
how 0.703903 0.012137 0.676135 0.856700 -0.572578 -0.549665 -1.508847 0.364975 1.221668 0.371925 0.567387 0.286523 0.480367 0.053646 0.263114 -0.054916 0.126901 0.157261 -0.340517 1.390142 0.139968 -0.038961 -0.109872 -0.242350 -1.578993 -1.186771 -0.310800 -0.728853 0.338836 -1.311145 1.425553 -0.450944 -0.842874 0.455550 -1.408571 -0.023717 0.601840 -0.504964 -0.938833 1.435493 -0.083479 0.255013 -0.860089 0.209001 -0.508847 -0.187273 -0.296812 -0.264810 -0.842556 -1.106083
see 0.316866 -0.084047 0.822604 -0.085918 -0.726709 -0.598725 -0.769826 0.100480 -0.058332 1.035500 0.464620 -0.046460 0.586549 -0.572783 -0.849822 -0.148138 0.184582 -0.174483 0.200557 0.916423 -0.347823 0.063759 0.445555 -0.584201 -0.702210 -0.781624 -0.454726 -0.994041 -0.310629 -1.357565 1.151033 -0.976461 -0.395888 0.873164 -0.782532 0.231990 0.533843 -0.691725 -1.078766 0.712146 -0.211933 -0.337049 -0.650379 0.389909 0.156477 -0.384227 -0.582775 0.526552 -0.834994 -1.616751
into 0.524431 0.454135 1.863859 0.498513 -0.323315 0.242668 -0.210145 0.215993 -0.933660 1.168776 0.315256 -0.066807 -0.092311 0.706183 -0.028394 -0.162715 -0.701010 -0.640954 -0.573484 -0.183237 -0.829836 0.724314 -0.500679 0.243533 -0.068391 -0.260329 -0.572683 -1.669805 0.859573 -0.730917 -0.381004 -0.407015 -0.702633 1.689253 -1.314884 -1.430007 0.148938 -1.987557 -0.496391 -0.912510 -1.061167 -0.257655 0.977432 1.063051 -0.532890 -0.736503 -0.953225 -0.017924 -0.428824 -0.262784
many 0.328554 -0.068451 1.442808 0.218094 -0.415297 -0.026471 -0.295368 0.944691 -0.266950 -0.122646 0.236789 -0.394132 0.273965 0.014590 0.372179 -0.055179 -0.875933 -0.573409 0.432253 0.331533 -1.201508 0.199080 -0.569050 -0.074888 -0.625659 -0.380037 0.383808 -0.735807 -0.690433 -1.095439 1.340856 -0.022659 0.765679 1.250921 -0.352386 -0.209338 -0.141014 -0.760374 -0.341662 1.517025 0.521587 -0.231041 -0.814251 -0.291404 0.366987 -0.478258 -0.732349 0.120118 0.188141 -0.877987
but 0.564426 -0.323915 0.718695 -0.054909 -0.763262 -0.309805 -0.461355 0.520351 0.309380 0.100274 0.484521 0.468065 -0.159148 0.269358 0.015976 -0.458783 -1.123450 -0.553958 -0.068691 0.542395 -0.294854 -0.355229 -0.482408 -0.386879 -0.571003 -0.832553 0.882088 -0.922786 -0.093494 -0.799293 0.734644 -0.331068 0.332358 1.493058 -0.714125 0.640018 -0.812837 -0.864414 0.188278 0.654508 0.621796 -0.401681 -0.223139 0.318582 -0.252802 -0.255715 -0.293788 -0.280382 -0.010747 -0.632947
its 0.136801 0.178085 0.443205 0.585319 -0.140810 0.561499 -0.405583 0.292304 -0.140760 0.525597 0.509999 0.809107 0.044832 0.114535 0.376673 -0.403447 -0.938194 -1.057943 0.421910 0.698752 -0.753515 -0.693933 -0.087917 -0.346962 0.027414 -0.709979 -0.818995 0.491715 0.957214 -1.032149 0.489415 -1.181089 -0.366383 2.422204 -0.056289 0.328730 -0.696667 -0.028778 -0.648210 0.266318 0.169966 -1.012037 0.478979 0.261130 -0.599953 -1.383302 -0.271782 -0.407707 -0.342687 -0.376350
two -0.122768 0.024960 1.415513 -0.528914 0.508870 -0.260055 -0.086154 0.750911 -0.095992 1.084278 0.567623 -0.467033 1.122017 0.656867 -0.391670 -0.523162 -0.416891 -0.689599 -0.528547 0.546715 -0.359304 1.391973 0.615068 0.350800 0.131776 -0.720707 -0.168865 -1.736297 -0.593162 -1.715203 0.810026 -0.386746 0.201083 1.121802 -0.668896 0.141026 0.259707 -0.449205 -0.396821 0.526259 0.185779 -0.820208 0.391539 0.811589 0.388711 -0.297997 -0.732753 -1.386962 0.148322 -0.160952
plants -1.168766 -0.801157 0.023186 1.123705 -0.885157 0.267189 -0.039526 -0.121232 1.317606 0.405530 -0.233064 -0.517493 0.238091 -0.409402 -0.480568 0.427580 -0.348091 -1.162254 0.258603 -0.241099 -0.350076 0.460791 -0.453563 0.035848 -0.864005 -0.143588 -0.051758 -1.278373 -1.051178 -0.350605 0.461032 0.370410 0.196691 1.723511 -0.254116 -0.361884 -0.105904 -0.927287 -0.408629 1.689643 1.183781 -0.765694 -1.597520 0.361444 -0.026122 0.246299 -0.704910 0.300962 0.202383 -1.651907
water -1.398341 -0.150836 1.188471 1.238404 -0.623772 0.038029 0.273850 0.184418 0.236328 0.428936 -0.000646 -0.142713 -1.239299 -0.094879 -0.447738 0.212275 -1.327370 -1.837805 -0.780441 -0.538830 0.332709 0.175155 0.382094 -1.144658 -0.931686 -1.338754 0.617081 0.433214 0.518966 -0.300427 1.142630 -0.156029 0.465637 1.114229 -0.877251 0.238546 0.052741 -1.290422 -0.384062 -0.299502 0.218520 -1.111202 0.286725 0.363791 0.783030 -0.405138 -0.971984 0.679846 -0.149457 -1.203882
more 0.399737 0.526944 0.303079 0.588629 -0.815019 0.379917 -0.722894 0.342011 -0.315317 0.044696 -0.024456 -0.232025 0.115497 0.691086 0.642185 0.623955 -1.723146 -2.132667 -0.277172 0.089529 -0.372842 0.399888 0.526321 -0.059267 0.249446 -1.549153 0.364777 -0.067172 -1.077725 -1.484142 1.569941 -0.704784 0.500497 -0.161686 -0.889183 0.148730 -0.424487 -0.947554 0.610446 0.778879 -0.155207 -0.061984 -0.875590 0.417209 0.251264 -0.370166 -0.084533 0.142384 0.472725 -0.575920
dna 2.101836 0.103434 0.253205 0.728455 -0.140270 0.258916 0.279990 0.660932 -0.579212 0.350847 0.795105 0.110728 -0.176981 0.578322 -0.990467 -0.128379 -0.000763 0.028558 0.676554 0.723276 0.473654 0.819470 -0.721757 0.422390 -0.599595 0.533720 -1.044811 -1.816566 0.333181 -2.588955 0.799107 -1.923506 -0.106319 0.456743 -0.221241 -0.748273 -1.122283 -0.599264 -0.591932 0.518048 0.114153 0.296322 -0.079540 -0.184109 -0.972490 -0.701255 -0.599677 0.127806 -0.659254 0.471907
such -0.048499 -0.782389 0.523278 0.773395 -0.027200 -0.041538 -0.110541 1.638745 -0.190209 0.584478 -0.153085 0.186251 0.253547 0.850321 0.405033 0.692194 -0.875590 -0.178787 0.646869 0.456797 -1.380791 0.311049 0.005205 -0.344867 -0.693172 -0.198615 0.258551 -0.790066 -0.407020 -0.396144 0.472795 -0.405840 1.365104 1.342755 -0.884776 0.073932 -0.189598 -0.528477 -0.421645 0.989315 0.774317 -0.061253 -0.508422 -0.331589 0.482070 -0.567718 -0.711371 0.756537 -0.477332 -0.657097
when 0.309873 -0.325444 0.539780 0.035852 -0.489403 -0.234397 -0.431608 0.603449 0.343388 0.824334 0.491226 0.697826 -0.724811 0.925836 -0.729756 -0.471264 -1.085590 -1.093562 0.381453 0.681147 -0.070518 0.457054 0.111207 0.054131 -0.009626 -0.614339 -0.097920 -0.446179 0.177136 -0.692579 0.336261 -0.051176 -0.149255 1.396270 -0.709477 0.280734 -0.119191 -0.919490 0.121146 0.057672 -0.216399 -0.363207 -0.838163 1.079095 -0.528466 -0.370770 -0.286469 -0.132225 -0.337348 -0.237893
called 0.152436 -0.163140 0.962524 -0.868709 -0.292985 -0.563572 -0.837043 0.153788 -0.633654 0.787417 0.033708 0.229371 0.378259 0.124367 -1.065923 -0.124013 -0.515099 -0.229936 0.362977 -0.573794 -1.634790 0.684617 -0.260488 -0.411423 -0.223680 -0.516511 -0.617178 -0.928514 0.915386 -0.493521 0.977379 -0.528892 1.202774 0.770669 -0.010804 -0.413024 -0.340537 -0.815277 -1.256816 -0.356389 0.331641 -1.033076 -0.771468 0.717648 -0.578550 -0.089166 -0.335454 0.067954 -0.884201 -0.213405
all 0.045092 -0.130830 1.096801 0.173856 -1.195666 -0.255766 -0.668177 0.820882 -0.034998 0.247212 -0.036536 -0.317142 0.618331 -0.120220 0.029412 -0.882226 -0.136010 -0.859235 -0.562465 1.170865 -0.524683 -0.300849 -0.316604 -0.061525 -0.159683 -0.545951 0.874076 -0.684662 -0.428441 -0.851643 0.601478 0.239537 0.334871 1.178311 -0.676900 -0.022932 -0.631557 -0.549703 -0.359760 1.219524 0.611604 -0.559767 0.291042 -0.075920 -0.245789 -0.337294 -1.260650 -0.867810 0.210947 -0.380952
different -0.490940 -0.383844 0.742197 -0.037021 -0.723670 -0.630262 -0.183871 1.074541 -0.042687 0.750875 0.679617 -0.825432 0.736185 1.080306 0.715103 -0.480984 -1.191418 0.300985 0.005488 1.092449 -0.431993 1.126103 -0.394418 0.768687 -0.216580 -0.543373 0.080622 -0.865511 0.346052 -1.262433 1.365247 0.064289 0.418494 1.163495 0.292439 -0.347396 0.078511 0.311543 -1.184345 1.390946 0.467645 -0.330215 -0.013777 0.205638 0.151863 -0.481280 -0.265560 -1.027038 0.169487 -0.588600
most -0.002241 0.303453 1.000808 -0.053816 -0.941454 -0.115015 -0.832398 0.585915 -0.129040 0.219493 0.277939 0.529104 0.158070 -0.743094 -0.315508 0.304787 -1.218090 -1.219174 -0.020035 0.443201 -0.986883 -0.309990 -0.720978 -0.004613 -0.567078 -0.321536 0.605622 -0.470019 -1.028945 -0.497093 0.841777 -0.042689 0.883765 0.853777 -0.419821 0.285591 -0.661747 -1.282073 0.008906 1.177437 1.208708 -0.476549 -0.730373 -0.133620 -0.396623 -0.281979 -0.693282 0.168832 0.269621 -0.484817
plant -0.499967 0.141877 -0.042040 0.584625 0.237338 0.368973 -0.806235 -0.107957 0.435627 0.405175 -0.123989 -0.419768 0.685019 -0.186643 -0.278900 0.325817 -0.300441 -1.085715 0.198969 -0.197544 -0.825460 0.198525 -0.136345 0.450339 -0.747162 -1.017527 0.144516 -0.741348 0.329593 0.430886 0.436411 -0.296852 -0.098657 2.015152 -0.392137 -0.885006 -0.275754 -0.335291 -1.071999 1.786317 0.801814 -0.216187 -1.159491 0.935941 -0.369781 -0.535905 -0.045816 -0.361876 -0.030487 -1.643210
than 0.509934 -0.126838 -0.119489 0.498733 -0.360125 0.151866 -0.942821 0.619069 -0.689131 0.257772 0.544918 0.276960 0.355853 0.221739 0.330867 0.584141 -1.465336 -2.131647 -0.766847 0.516485 -0.100349 -0.055833 -0.289440 -0.264144 0.028508 -1.372632 0.889848 -0.328216 -0.101393 -1.409916 1.288402 -0.580377 -0.052251 0.151626 -0.486305 0.225870 -0.789893 -0.815489 1.303535 1.190575 0.451888 -0.152486 -0.922269 0.729399 0.966506 -0.772633 -0.169173 0.608311 0.620173 -0.430490
has 0.526949 0.847352 0.307894 0.342708 -0.774800 0.273521 -0.141542 1.028148 -0.561671 0.044017 -0.184636 -0.053641 0.968607 0.470782 0.633890 0.122661 -0.433814 -0.689600 1.107011 0.312545 -1.033949 0.749314 0.261817 -0.056183 -0.636331 0.320254 0.308914 -0.497287 1.024260 -2.015906 0.644200 -0.929888 -0.053490 1.441688 -0.476831 0.839882 0.040991 -0.994580 1.078637 0.518006 0.630903 -0.819408 0.138095 0.941915 -0.156028 -0.422660 0.394406 -0.354284 -0.351823 -0.491434
protein 1.190610 -0.736313 0.202192 0.148763 -0.436939 -1.077712 -0.144502 1.128031 -0.196753 0.458699 -0.044668 -0.450084 0.151649 0.397817 -0.882922 -0.258405 0.270984 0.090594 0.926223 0.184065 -0.411266 0.616058 0.478266 0.291536 0.290107 -1.259402 -0.109344 -0.449086 1.807281 -0.680553 1.207677 -1.176019 0.491180 1.476927 -0.520582 0.336960 -1.489659 -0.376411 -1.409458 -0.309014 0.026531 -0.970649 0.791026 -0.012719 -0.378160 -0.248609 0.744401 0.899573 -0.390428 -0.365380
do 0.789007 -0.933954 0.361836 0.615100 -0.408366 -0.723628 -1.585339 0.546127 2.005595 0.460699 0.801037 0.555746 -0.116828 -0.042925 0.559872 0.428741 -0.334098 -0.053961 -0.112681 1.393581 0.231577 0.058674 -1.303631 -0.535982 -1.033389 -0.840228 -0.131970 -1.253116 0.037854 -0.898848 1.244148 0.413825 -0.280591 0.314199 -1.183035 -0.346777 -0.102366 -0.649807 -0.507822 1.369803 0.131323 0.045250 -0.732859 0.220903 -0.000421 0.116932 -0.400238 -0.705200 -0.356274 -0.869356
energy -1.198083 -0.041711 0.685058 0.444341 -0.834902 0.993515 -1.152575 0.434097 0.486911 0.966176 -0.048579 0.196861 0.206406 0.506010 -0.330999 -0.229949 -1.013384 -1.377094 -0.526415 0.989018 -0.805365 0.291267 -0.680038 0.078408 0.217423 -1.634526 0.546578 -0.222615 -0.451765 -0.298061 0.327665 -1.422925 -0.396228 0.486935 -1.865850 -0.038818 -1.023960 0.208398 0.045263 -0.578307 -0.384543 1.201229 0.346330 -0.271199 -0.650236 0.231800 -0.784424 0.255693 -1.881647 -0.127234
blood -0.680851 -0.366278 0.901126 -0.594380 -0.734475 -1.233081 -0.171297 0.428937 -0.470126 0.430815 1.422725 0.038264 -0.066992 1.160943 0.744284 0.383992 -0.764844 -0.611951 0.438087 0.416129 0.390506 0.406414 0.872878 -0.803748 -0.568257 -0.755918 -0.296475 0.665654 1.278627 0.295958 -0.279076 -0.120218 -0.096153 0.449889 -1.219232 -0.557563 -0.038496 -1.202566 0.226317 0.003977 0.290081 0.623519 -0.407782 1.590527 -0.518305 -0.838809 -1.536101 1.104191 -0.756329 -0.208554
genes 1.686167 -0.026922 0.819360 -0.332691 -0.279151 -0.396698 -0.317505 0.637435 -0.901381 -0.234174 1.022837 0.182364 1.239609 1.025605 -0.122424 -0.759795 0.282748 0.636099 -0.122612 -0.418829 -0.308706 0.682263 -0.424211 0.725378 0.123023 -0.226830 -0.189184 -0.665168 -0.033856 -0.986718 1.823694 -0.338207 0.530442 0.855404 -0.712942 -0.008523 -0.505153 -0.090812 -0.757036 1.888820 0.232839 -0.243253 0.379076 0.744119 0.194843 -0.940981 0.509316 0.489378 0.982161 -0.248323
may 0.484894 -0.100569 0.510123 0.293332 0.037799 -0.243823 0.481553 -0.007856 0.497615 0.243472 0.120612 -0.648641 0.108615 1.439972 0.780141 0.323946 -0.987413 0.051174 -0.000691 0.754455 -1.131055 -0.101596 -0.906219 -0.043071 0.033767 -1.438876 0.651674 -1.172766 -0.424473 -0.166924 1.020081 0.021883 0.610181 1.002919 -0.773052 -0.126067 -0.362285 -0.621505 -0.504188 0.735308 -0.182427 -0.685319 -0.455062 0.109024 -0.471210 -1.097998 0.317556 -0.119085 -0.040640 -0.565380
will 0.684880 -0.194468 0.701939 0.257786 0.088117 0.418492 -0.733069 0.513940 0.466121 0.363966 0.281432 -0.993352 0.100698 0.817356 -0.030120 -0.439438 -0.687448 -0.147518 -0.581962 1.456992 -0.214787 -0.490035 0.778810 -0.129902 -0.256426 -1.057679 -0.682710 -1.069330 -1.361715 -0.845535 0.980515 -0.438025 -0.134435 0.931705 -0.932596 0.661877 0.929174 -0.566713 -0.477374 0.597830 -1.010007 -0.524521 -0.214054 0.546859 -0.979744 -0.772473 -0.462292 0.083701 0.051086 -1.053809
also 0.084225 0.137304 1.034203 -0.406918 -0.690057 0.103723 -0.352730 0.585639 0.238888 0.325096 0.039841 0.087841 -0.348882 0.573980 -0.263620 -0.288852 -0.577642 -0.333877 1.110739 0.198781 -0.372106 -0.545626 0.092181 0.074343 -0.011611 -0.684675 -0.109550 -0.268331 0.107979 0.046663 1.373836 -0.340881 1.068309 1.217236 -1.123940 0.148795 -0.113579 -0.758592 -0.817206 0.717992 0.324061 -0.790127 -0.631142 -0.083262 -0.625519 -0.401929 -0.878266 0.398632 -0.129262 -0.907690
each 0.263787 0.087017 0.649076 -0.515144 0.877463 -0.094651 0.192839 0.284235 -0.470913 0.022532 0.315349 -0.343672 1.237607 1.005894 -0.243802 -0.902057 -0.237134 -0.400792 -0.808979 0.747370 -0.795772 0.743080 0.165663 -0.444022 0.288336 -0.278936 -0.424596 -0.589681 0.281782 -1.783171 0.481910 -0.854243 0.254149 0.960915 0.041185 0.000972 -0.667923 -0.315951 -0.145121 0.326244 0.556684 -0.982219 -0.409993 0.687562 -0.813916 -0.435796 -0.357769 -0.740094 0.338477 -0.141205
what 0.459176 -0.377606 -0.038647 0.505852 -0.832915 -0.051247 -1.262645 -0.216065 0.729885 0.626391 1.074469 0.552007 0.638067 -0.486231 -0.242884 -0.727946 0.869761 -0.170915 -0.465817 0.238044 -0.110431 0.133777 -0.205248 0.688968 -0.794163 -1.690543 0.079518 -0.167808 0.009663 -1.292082 1.273449 -0.002768 -0.377945 0.934397 -1.341636 -0.385890 0.483504 -0.446409 -1.092880 1.039854 0.129098 -0.473882 -0.169743 0.441141 0.053618 -0.247479 -0.128473 -0.288805 -0.765883 -0.748817
gene 1.744714 -0.017585 0.351762 -0.320900 -0.571359 -1.154813 0.263063 0.291060 -0.422099 -0.534388 0.794129 -0.186193 1.197991 0.886674 0.132089 -0.159499 0.462183 0.907906 0.515156 0.181333 -0.553643 1.052312 -0.656620 1.092923 0.453086 -0.179956 -1.165454 -0.221282 0.126535 -0.655447 1.701509 -0.527839 -0.356549 1.007585 -1.102515 0.344222 -0.754792 -0.682844 -1.187347 1.686634 0.575188 -0.469279 0.080568 1.158238 -0.026873 -1.390361 0.951768 1.172350 -0.461703 -0.104291
only 0.709096 -0.392921 0.617358 0.043298 0.001690 0.171182 -0.135550 0.731816 0.084714 -0.070662 0.282253 0.385494 0.702741 0.500876 -0.587683 -0.408906 -0.829867 -0.372764 0.035804 0.809092 -0.357958 0.354496 -0.201662 0.005710 -0.334091 -1.097605 0.741336 -1.096050 -0.065312 -0.639517 0.260683 0.152081 -0.061359 1.456045 -0.510908 0.558946 -0.623809 -0.766682 0.184074 0.204984 0.691365 -0.969797 -0.569589 0.708199 0.186036 -0.406471 -0.599780 0.207426 0.772240 -0.443302
between -0.451295 0.458893 1.162771 -0.430808 0.339173 -0.716221 -0.261624 -0.034992 -0.236855 1.473680 0.839199 1.132177 0.830400 -0.377192 -0.541244 0.089914 -0.501278 -0.684329 -0.267499 -0.279439 0.607883 0.907860 -0.503455 0.253634 -0.748395 -0.778215 -0.226617 -0.689843 0.032302 -1.385857 1.211781 -0.263963 0.131796 0.180207 -0.891210 0.258075 0.230354 -0.143498 -0.980985 0.126290 -0.998562 -1.212203 -1.344223 0.148977 0.319920 -0.725143 -0.665677 -0.562366 -0.400638 -0.322329
body -0.293927 -0.506784 0.494056 0.626687 -0.295032 0.133276 -1.035091 0.301229 -1.192433 0.324667 0.361669 0.404567 0.488406 -0.275788 0.864818 0.084395 -1.267759 -0.078982 -0.388325 0.524696 -0.328716 -0.553169 0.010172 -0.696778 -0.349406 -0.986883 0.120592 0.135737 1.411069 0.153677 0.444213 -0.594596 -0.046653 2.089361 -0.118586 -1.086078 0.511995 0.075254 -0.392560 1.071414 0.370961 -0.347750 -0.112600 0.858537 -0.692785 -1.137864 -0.624299 -0.273675 -0.017409 -1.127960
proteins 1.032974 -0.289237 0.747939 0.078123 -0.019469 -0.208958 -0.779833 1.428972 -0.309388 0.961247 0.172517 -0.190999 -0.228993 0.185995 -0.077451 -0.365670 -0.255978 0.081798 0.387774 0.043987 -0.144460 0.101175 0.303757 0.274888 0.072477 -1.685174 -0.127086 -0.815841 0.539708 -0.934679 1.131159 -1.073385 1.535982 0.701952 -0.559275 -0.548588 -1.181474 -0.146343 -1.607577 0.314243 0.712673 0.241386 1.142992 -0.142850 -0.310889 -0.113375 0.385998 0.787068 0.722080 -0.769818
because 0.167062 -0.013188 0.448329 -0.140053 -0.939840 0.193094 -0.407422 0.112753 0.247469 0.416172 0.465236 0.520987 -0.517273 0.514093 -0.191013 -0.032816 -1.088252 -0.734313 0.321523 0.133351 -0.330568 -0.034009 -0.332145 -0.192041 -0.094456 -0.429034 0.474292 -0.536340 0.150382 -0.972151 0.414709 -0.535698 0.700437 0.658871 -0.683609 0.569805 -0.276703 -0.741879 -0.254960 0.525475 0.575670 -0.871173 -0.462330 0.397261 0.107292 -0.644056 -0.580985 -0.646432 -0.462731 -0.272983
so 0.336958 -0.286302 0.335096 0.158193 -0.937932 0.248203 -0.403598 0.235045 0.369092 0.282107 0.890841 0.367782 -0.424230 0.725072 -0.202017 -0.153824 -0.858471 -0.617086 0.044453 0.270865 -0.011977 0.016088 -0.115542 -0.680601 -0.091879 -0.635232 0.454876 -0.641118 0.396950 -1.337559 0.791377 -0.217552 0.423441 0.566446 -1.053329 0.396737 -0.089092 -1.017493 0.130435 0.412507 0.143351 -0.824365 -0.395504 0.637190 0.386803 -0.689900 -0.278194 -0.073725 -0.287251 -0.274470
molecules -0.006264 -0.846680 0.552589 0.662776 0.420111 0.518763 -0.297001 1.134702 -0.046449 0.725624 0.577959 -0.756986 0.128414 0.444502 -0.520982 0.131208 -1.160864 -0.719182 0.093736 0.587602 0.269991 0.468480 0.085122 -0.574044 -0.454225 -0.852157 0.209703 -1.003818 0.659915 -1.494777 0.874819 -0.809192 1.069011 0.916718 -0.864268 -0.590392 -0.295572 -0.403518 -0.853127 -0.721044 0.187572 -0.296154 0.727570 -0.716296 0.074772 0.349148 -0.801220 0.044004 -0.918041 0.177496
example 0.405980 -0.099428 0.421096 0.622583 -0.751947 -0.254386 -0.589992 0.889291 0.153021 -0.026899 0.275568 -0.401893 0.197519 -0.139585 -0.625881 0.346157 -0.897972 -0.439600 -0.319154 0.775652 -1.193935 0.709561 -0.076531 0.173237 -0.394438 -0.340499 -0.550001 -0.213692 -0.611818 -0.418134 0.209984 -0.590913 0.186123 1.287255 -0.973274 0.862034 -0.212844 -0.774047 -0.712354 0.817216 0.454345 -0.758396 0.037986 0.514455 -0.212228 -0.872973 -0.404067 0.865172 0.222068 -0.185925
organisms 0.252709 -0.135972 1.068221 0.159807 -0.860214 0.769050 0.266142 0.816733 -0.258321 -0.236407 0.319868 0.305833 1.310666 -0.306981 -0.045167 0.020653 -0.989446 -0.374941 0.121120 0.650560 -0.032853 -0.135675 -1.107532 0.037387 -0.835390 -0.354820 1.234375 -0.884059 -0.989449 -0.584755 0.712990 0.474297 0.768300 1.214027 -0.916682 -0.616578 0.130630 -0.828854 -0.614196 1.141102 0.606792 0.237410 -0.372276 -0.852155 -0.414704 -0.196730 -0.876519 -0.221670 -0.778102 -0.454717
membrane 0.740715 0.411961 0.898137 0.234567 0.427100 -1.574155 -0.789253 0.888870 -0.501500 0.673230 0.187468 0.440405 -0.681183 -0.254794 -0.241919 0.431695 -0.818625 -1.377192 -0.434243 0.289060 -0.284666 -0.598896 0.994368 0.198685 0.512441 -1.792220 0.635986 -0.725847 0.976079 -0.723099 0.707363 -0.500734 0.808735 0.086175 -0.258235 0.059373 -0.649733 -0.957143 -1.385511 -0.458209 -1.127381 -0.321037 1.975069 0.753895 -0.398341 -0.629050 0.991738 0.251480 -0.843286 -0.737884
was 0.385799 0.864782 0.005550 -0.153734 -1.556350 0.187472 0.909397 0.233850 0.064959 0.177347 -0.279269 0.814329 -0.199497 0.730490 -1.256920 -0.247981 -0.147239 -0.818190 0.007046 -0.427510 0.090244 -0.107492 0.708946 1.205066 -0.420017 0.880966 0.548418 -0.671736 0.318894 -1.338890 0.716155 -0.793437 -0.039891 1.557767 -0.737470 0.902285 -0.664358 -0.948167 0.893570 0.454276 0.451930 -0.943469 -0.403940 0.050385 -1.052521 0.213597 0.067226 -0.507940 -0.371727 -0.239844
through 0.024947 0.570189 1.564733 0.328428 0.330054 -0.256841 0.886394 0.045644 0.066939 0.879546 -0.385561 0.849329 0.043484 0.748714 0.808478 0.186025 -0.334644 -0.955257 -1.086968 -0.187293 -0.641960 -0.318783 0.225958 -0.210740 -0.950526 -1.419377 -0.050317 -0.819086 1.351827 -0.716185 -0.250920 -0.494677 0.305761 0.390837 -0.997212 -0.574498 -0.253527 -0.649223 -0.533553 -0.513712 -0.244906 0.095469 -0.124288 0.906069 0.290026 -0.858607 -0.964197 0.114996 -1.173061 -0.947396
if 0.503888 -0.612782 0.110062 0.244450 -0.764800 -0.244354 0.175514 0.201857 0.313623 0.542821 0.106462 0.239833 -0.138988 0.920033 -0.483586 0.157888 -0.917103 -0.227002 -0.328756 0.841541 -0.091702 0.238346 -0.159319 -0.066285 0.063101 -0.707748 0.074105 -1.206001 -0.263509 -0.673853 -0.116602 -0.289742 -0.102438 0.994247 -1.107270 0.892455 -0.154927 -0.871176 -0.090066 0.318063 -0.332712 -0.939652 -0.645589 0.969403 -0.323552 -1.164685 0.149176 -0.192713 -0.409411 -0.154807
life 0.275457 0.254808 0.314016 0.168481 -0.858781 1.005552 0.640559 0.255670 0.248493 0.205781 -0.207477 1.082604 0.513317 -0.787544 0.293181 -0.442688 0.632052 -0.514571 -0.804503 1.167125 -0.975962 -0.429417 -0.475542 0.284281 -0.809857 -0.547912 0.860346 -0.887142 -0.831804 -1.479073 0.552765 0.173404 0.404217 2.088625 -0.587944 -0.681614 0.450114 -0.307289 -0.649863 0.435711 0.423022 -0.254421 -0.183389 0.164915 -0.121045 -0.104166 0.158662 -1.180250 -1.595567 0.027246
animals -0.551787 -0.594535 1.231707 1.184622 -0.887282 0.007250 -0.624782 0.490584 0.019677 -0.116051 0.430375 0.527502 0.328987 -0.565771 0.706604 0.537878 -0.883642 -0.157307 -0.443850 -0.357654 -0.517771 -0.220557 -0.753505 -0.790820 -0.649253 -0.677863 0.138499 -0.282665 -0.831097 -0.189239 0.690211 0.404180 0.283284 1.405025 -1.169421 -0.200137 0.500504 -0.929532 -0.048537 0.933864 0.625455 -0.857866 -0.485461 -0.923273 -0.147163 -0.307581 -1.008607 -0.318238 0.432331 -0.970092
form -0.217157 -0.280425 0.599538 0.018618 0.686166 0.204965 -0.668677 0.792398 -0.376612 1.085851 0.276891 0.004292 0.135825 -0.102788 -0.199227 0.583245 -0.508171 -0.781244 0.463363 0.674213 -0.263349 0.852073 -0.406751 -1.127213 -0.282162 -0.458339 -0.143397 -1.104796 -0.022952 -0.491485 0.908596 -0.422700 0.166996 1.235675 -0.289192 -0.350949 0.020753 -0.627176 -0.837458 -0.123792 0.039907 -0.926733 -0.655875 0.521738 -0.485173 0.308685 0.051317 -0.453108 -0.313423 -0.822190
about 1.042674 0.997185 0.118900 0.005206 -0.939885 -0.147556 -0.343474 1.448513 0.222451 -0.111044 0.939788 0.201287 0.931701 -0.032043 -0.281967 -1.062362 -0.376804 -0.699180 -0.118676 1.646134 -0.244700 -0.343573 0.090304 0.077896 -0.382337 -2.061943 0.569153 0.467034 0.104371 -0.873676 1.000966 -0.577240 -0.195720 0.926676 -0.059136 -0.667491 0.012622 -0.391384 1.245430 0.428377 0.547633 0.015989 -0.461320 0.707501 0.449525 -0.489010 -1.163909 0.352971 0.131571 0.074623
were 0.484893 0.181982 0.221830 -0.224802 -1.582041 -0.252169 0.630220 0.483395 0.330083 1.044515 -0.132528 0.787439 0.033919 0.643640 -0.713507 -0.442096 -1.036051 -0.433969 -0.708602 0.372510 0.023333 -0.002155 -0.314031 0.913332 0.164721 0.871776 0.764494 -1.364770 -0.261949 -0.789459 0.682379 0.090292 0.328086 1.372316 -0.643964 -0.282401 -0.379098 -0.634742 0.481946 1.197648 0.279622 -0.349449 -0.102649 0.287402 -0.093193 0.627391 0.058522 -0.129200 0.619140 -0.744517
there 0.415142 -0.035478 0.493570 -0.203474 -1.024346 -0.173059 -0.167131 0.533580 -0.192966 0.275094 0.507263 -0.191392 -0.039278 0.337946 -0.517462 -0.560378 -0.489372 -0.957936 -0.052864 0.208609 -0.184136 0.392327 0.399538 0.476119 0.089916 -0.765427 1.066886 -0.957726 -0.375981 -1.121039 0.598646 -0.288059 0.697598 0.585470 -0.789349 0.479644 -0.343127 -0.627330 -0.217339 0.970182 0.381604 -0.824642 -0.245318 0.558354 0.305717 -0.716848 -0.446962 -0.438225 0.066563 0.145050
been 0.754560 1.316900 0.524749 0.428942 -1.562939 0.198063 0.540407 0.795141 -0.296465 0.344588 -0.449821 0.426909 0.709159 0.861489 -0.044182 0.373664 -0.739062 0.064846 1.049140 -0.224272 -0.593844 0.205535 -0.388085 0.937242 0.080090 0.540856 0.525017 -1.006922 0.768759 -1.411399 0.227641 -0.750895 0.287275 1.083145 -0.992024 0.563548 0.337210 -0.871138 1.474106 1.069724 0.923634 -0.321663 0.420863 0.166275 0.198810 0.148277 0.098118 -0.342515 -0.094754 -1.629492
both -0.023100 -0.974729 1.080394 -0.362082 -0.381893 -0.198969 -0.018609 0.322338 0.270907 0.225967 0.097238 0.189818 -0.121304 0.623551 0.438064 -0.467502 0.033670 -0.562254 0.130483 0.520125 -0.580509 0.553742 0.967878 -0.263992 -0.225322 -0.249679 -0.119481 -0.348523 -0.753773 -0.981350 0.663606 0.350588 0.323660 1.135341 -0.955015 0.592753 -0.326656 -0.337804 -0.931998 0.668487 -0.097948 -0.313882 0.023091 0.261599 0.584754 -0.364767 -0.411889 -0.215977 0.560434 -0.401753
them -0.134544 0.211016 0.621591 0.369625 -0.258919 0.085629 0.166319 0.633649 0.816682 0.083935 0.117064 0.271602 0.100624 0.149096 0.375089 0.041088 -1.031239 -0.924419 -0.094211 -0.115904 0.413105 -0.211412 -0.439586 0.212970 -0.809211 -1.096528 -0.702452 -0.140243 -0.065955 -0.920575 0.655357 0.140608 0.832341 0.931710 -0.858309 -0.610161 -0.433451 -0.635533 -0.620921 -0.004310 -0.280128 -0.506164 -0.161785 0.082426 -0.998357 -0.035035 -1.015930 0.372348 0.758015 -1.082909
system 0.075128 0.308453 0.672619 0.602331 -1.357153 -1.357823 -1.618752 0.270649 -0.619315 0.168823 -0.290141 0.036580 0.263731 0.162115 0.862201 0.035016 -0.601116 0.213871 -1.257105 -0.234228 -1.119546 0.233696 1.447098 -1.196299 -1.243563 -0.608044 -0.098859 -0.034225 0.800025 -0.511658 0.299662 -1.244263 0.614098 0.020183 -1.020468 0.200790 -0.035531 -0.339476 -0.482959 0.369684 0.254858 0.118038 -0.283416 0.364545 -1.508181 0.321325 -1.086231 -0.374587 -0.124695 -0.565648
new 0.962071 -0.024851 0.423697 0.599052 0.102592 0.979573 0.333299 0.180235 -0.183547 -0.988404 0.756003 -0.932422 0.710698 0.377465 -0.311109 0.203411 -0.270857 -0.477721 0.494495 0.370784 -0.249644 0.730716 -0.837674 0.427647 -0.710982 0.040364 -0.469511 -1.468642 -0.123711 -0.787749 0.470481 -0.169858 0.105855 1.712767 -0.097637 -0.627963 -0.003108 -0.181054 -0.768588 1.174818 -0.280441 -0.783243 0.166448 0.902754 -0.388920 -0.680674 -1.077243 -0.894150 -0.302188 -0.320947
p -0.271373 -0.049712 -0.002571 0.064522 -1.488150 -0.538279 -1.118936 -0.252772 0.609503 1.272230 0.926131 0.094789 0.667355 -0.388793 -0.410927 -0.126679 0.471099 -0.263171 0.973773 0.959318 0.751320 0.458760 0.349950 -0.054030 -0.113460 -0.952996 -0.428810 -0.258669 0.271748 -1.346436 1.024446 -0.468923 -1.348188 0.068574 -0.902493 0.542149 0.584867 -0.806449 -0.764128 0.357006 -0.042429 -0.545405 -0.631551 0.239889 0.404450 -0.424090 -0.429295 0.241350 -1.037325 -1.266091
large -0.081993 -0.522954 0.606179 0.029105 0.050785 0.164917 0.157279 0.380083 -0.429038 -0.548917 0.864130 -0.101890 0.603244 0.118107 0.147765 0.547254 -1.568695 -0.317257 0.114358 0.148588 -0.557826 0.245351 -0.597074 -0.780582 -0.882273 -0.201927 1.150103 -1.401968 0.383286 0.075890 1.372162 -0.277483 0.511852 1.779730 -0.540046 -0.403615 -0.881518 -0.137140 0.215792 -0.308325 -0.443641 -0.342261 0.435820 0.349405 -0.421502 -0.029989 -0.844356 0.715644 -0.618695 -0.686250
up 0.018904 0.372372 0.725694 0.650109 -0.143772 0.753561 0.040306 0.656912 0.424561 0.073085 -0.493436 -0.991425 -0.403927 1.310155 -0.287883 -1.202532 -1.099799 -1.278897 -0.976896 0.204458 0.000585 0.317013 -0.317687 -0.145378 -0.221785 -1.412615 -0.852481 0.364077 0.603629 -1.295874 0.329496 -0.458501 0.684770 0.522812 0.487949 -0.616460 -0.751559 -0.515847 -0.436520 -0.080181 0.792204 0.217958 0.142145 0.794904 -0.120818 -0.055416 -1.374555 0.190776 0.346266 -0.658736
used 0.605250 0.613249 0.571691 0.298604 -1.299460 0.964251 -0.020773 0.580479 0.587609 0.464835 -0.639078 0.332834 0.432920 0.672976 0.018615 -0.135687 -0.660177 0.050635 0.744831 0.640788 -0.132922 1.108933 -0.190794 0.906146 -0.361445 0.599989 -0.703667 -0.725880 -0.466290 -0.883686 0.784019 -0.949871 0.348194 0.255020 -1.173110 -0.225028 -0.200780 -0.261050 -0.391983 0.630432 0.484131 0.326212 0.010491 0.269464 -1.112777 0.411820 -1.031825 0.462996 -0.334925 -0.497089
another -0.094944 1.061068 -0.202125 0.217035 0.065877 -0.223922 0.325002 0.573720 0.218351 0.452870 0.845909 -0.304239 0.859916 0.677479 -0.592536 1.004732 -0.437218 -0.558143 -0.125278 0.668107 -0.982435 0.483940 0.185350 0.003912 -0.301259 -1.152479 -0.522576 -0.424285 -0.177844 -0.704287 0.312432 -0.266409 0.060694 0.882512 -0.322065 0.147560 -0.082667 -1.261494 -0.933125 -0.004250 0.710700 -1.105959 -0.501733 -0.191412 -0.930607 -0.801312 0.250357 -0.578244 -0.188519 -0.167420
thus 0.063034 0.067599 0.347430 -0.047845 -0.361595 0.141224 -0.016642 0.049715 0.167497 0.414437 0.255622 -0.117689 -0.068472 0.635937 0.562810 -0.082943 -0.778278 -0.787425 0.212786 0.007394 -0.252382 -0.049905 0.031053 -0.144039 0.203592 -0.843642 -0.268579 -0.209061 0.216081 -0.683414 0.412898 -0.788780 0.136112 0.647892 -0.945207 0.429178 -0.582783 -0.087539 -0.051474 0.590195 -0.118884 -0.524882 -0.567751 0.541333 0.218033 -0.755227 -0.397940 -0.427685 0.012712 -0.477800
groups -0.821695 -0.073567 0.795441 -0.066357 -0.655833 -0.250521 -0.471794 0.693171 -0.108401 1.354558 0.014361 -0.234022 1.188637 -0.705235 0.735714 0.111200 -0.411103 -0.189607 0.362824 0.498017 -0.690789 0.233960 0.008966 0.645463 0.223958 -0.338320 0.900070 -1.204534 -0.869741 -1.104082 1.460778 0.589085 0.673325 1.229701 -0.571160 -0.961787 0.319139 -1.199316 0.103263 -0.399011 0.584445 -1.165561 0.028481 -0.903421 -0.184354 0.034638 -0.329941 -0.222574 -0.106870 -0.034326
however 0.405323 -0.042381 0.443938 0.106527 -0.620065 -0.122624 -0.435453 0.424944 0.135966 0.167044 0.257449 -0.035965 -0.440336 0.202558 -0.329479 0.076163 -0.650971 -0.659255 0.050643 0.789373 -0.591752 -0.152695 -0.453364 0.214026 -0.160703 -0.226129 0.633701 -0.933349 -0.349690 -0.489585 0.400062 -0.106384 0.249416 0.402553 -0.455587 0.477279 -0.298172 -0.813355 0.075981 0.910120 0.360784 -0.325908 -0.685383 0.103776 -0.042484 -0.382673 -0.318453 -0.352759 -0.433710 -0.425176
during -0.166810 0.071167 0.600428 -0.435516 -0.956408 0.103226 0.535135 -0.107259 -0.339830 0.959977 1.127576 0.732710 -0.544179 0.480896 -0.038353 -0.710648 -0.318114 -0.277625 -0.174701 0.019812 -0.530473 0.551158 -1.045392 -0.473445 -0.197137 -0.819083 0.174008 -0.843082 -0.621817 -1.246180 -0.192361 -1.135111 -0.464224 1.552750 0.274156 -0.094747 0.694263 -0.098171 0.446906 0.356074 0.215366 0.155867 -1.336540 1.324101 0.078184 -0.098142 0.404858 -0.294326 -0.458548 -0.314264
small 0.345676 -0.495762 0.682645 0.048968 -0.470595 0.311612 0.241686 -0.071204 -0.502125 -0.426103 0.430191 0.514354 0.968269 0.179752 -0.538804 0.479936 -1.583842 -0.110514 0.484564 0.115213 -0.656068 0.424180 -0.317760 -0.382713 -0.757948 -0.584609 0.727769 -1.220650 0.479203 -0.285046 1.217117 -0.003816 0.623596 1.306083 -0.577193 -0.146766 -0.901857 -0.063501 0.085299 -0.900947 -0.185188 -0.650618 0.627119 -0.116865 0.368142 -0.351640 -1.260422 0.723709 -0.380154 -0.447799
produce 0.310940 -0.980566 0.529737 -0.399288 0.593569 0.206640 -0.712324 0.575791 0.322278 -0.174863 0.182554 -0.602523 0.418244 0.736999 0.811959 0.518094 -0.928310 -0.302898 0.198427 -0.203950 -0.351811 0.821583 -0.344160 -0.094555 -0.153242 -0.339266 0.184831 -1.775184 -0.644428 0.019954 0.822771 -0.597760 -0.161084 1.210823 -0.916715 -0.052513 -0.613022 -0.674114 -0.197256 0.489342 -0.176910 0.072405 -0.613682 0.726164 -0.087926 0.263480 -0.412529 -0.156228 0.334082 -0.510859
genetic 0.799849 0.156174 0.589053 -0.156675 -0.288800 0.468933 0.164461 0.092352 0.069462 -0.471036 0.634435 0.525638 0.531173 1.243233 -0.500373 0.262681 0.303885 0.493937 -0.276909 0.008035 -0.364423 0.022795 0.033003 0.748094 -1.852590 -0.197233 -0.148021 -0.571830 -0.072862 -1.307727 0.260541 -0.917825 0.306728 -0.012535 -0.992606 1.073326 -0.125821 0.477837 -1.019786 1.400198 0.256110 -0.312226 -0.387562 -0.634275 0.083190 -1.634729 -1.262427 -0.390735 -0.306534 0.402955
section 0.496826 0.305035 0.858161 -0.180584 0.104571 -0.143918 -0.612736 0.697233 -0.274736 0.260046 0.112309 -0.535639 0.148857 -0.153968 -0.947168 0.124456 -0.326065 -0.161018 -0.447476 0.904273 -0.666364 -0.311240 0.410386 -0.131904 -0.791359 -0.976211 -0.453890 -1.104067 -1.297210 -0.805032 0.730184 -1.121493 0.299016 0.505533 -0.216151 0.908861 0.737423 -0.446665 -0.418746 0.449904 -0.128068 0.272951 -0.288051 0.144610 -0.191320 -0.381934 -0.818866 0.998342 -0.867812 -1.209798
environment -0.349721 -0.294560 1.194224 1.025213 -0.121474 0.643142 -0.199001 1.025491 -0.438078 0.181040 -0.133549 1.036749 0.225925 -0.047137 -0.155027 -0.094736 -0.847432 -0.882725 -0.699593 0.321975 -0.297190 -0.413959 -0.636389 -0.234320 -0.826676 -0.912429 0.417842 1.100404 0.092465 -0.193887 0.262344 -0.171258 -0.255733 1.274063 -0.644823 0.518704 0.357734 -0.898227 -1.172695 1.036034 0.143989 0.078033 0.240974 -0.973981 -0.415329 -1.004226 0.398630 -0.121624 -0.284772 -1.058500
human 1.255300 0.393307 0.250571 -0.180854 -0.960117 0.252899 -0.976727 0.617038 -0.633635 -0.038368 0.352596 0.435709 0.861687 0.616019 0.712280 0.125758 0.153229 -0.115254 0.382261 0.700176 -1.188063 -0.728028 0.060005 -0.109543 -0.884385 -0.247258 -0.300013 -0.260633 0.261869 -0.406322 0.224968 -0.796874 -0.325759 0.796717 -0.686612 0.291288 -0.834347 0.063740 0.658643 1.573504 0.255740 0.469015 -0.493653 0.716185 -0.477793 -1.159215 -0.467435 -0.032830 0.742849 -0.185237
those 0.071833 -0.209683 0.625019 0.316510 -0.393162 -0.015503 -0.256293 1.008744 -0.202107 0.731551 0.734157 0.597600 0.419256 0.652848 0.469273 0.107131 -0.816948 -0.901236 -0.460855 0.436717 0.359515 -0.113407 -0.288527 0.428288 -0.359795 -0.314426 0.407957 -0.843475 -0.593645 -0.833621 0.982732 0.610712 0.733979 0.646762 -0.310097 -0.385480 -0.044828 -0.080446 -0.055504 1.555079 0.369350 0.658425 0.124481 0.412390 0.047126 -0.109774 -0.327527 0.239468 0.460846 -0.458611
same -0.052616 -0.217189 0.058822 -0.225237 0.001591 -0.653411 -0.099202 0.406911 0.604951 0.376620 0.367480 -0.211654 1.196063 0.878689 -0.326641 -0.611625 -0.967131 -0.304654 -0.331270 0.793025 -0.213259 -0.022638 0.003476 0.554825 -0.386848 -0.495655 0.338089 -0.913862 0.170578 -0.752109 0.661106 0.072113 0.320713 1.040352 -0.465279 1.108628 -1.097822 0.293012 -0.358500 0.775648 0.316751 -0.589620 0.006340 0.404762 -0.140380 -0.971082 -0.347510 -0.855607 -0.319661 0.080476
changes 0.385079 -0.356465 0.673852 0.494985 -0.030377 -0.521728 -0.024757 1.284108 0.180268 0.744401 0.516656 0.877256 -0.114638 0.655391 0.276872 -0.108562 -0.636594 -0.135138 0.454824 0.695278 -0.832876 0.445793 -0.502521 0.855809 -0.847031 -1.040714 0.334556 0.223790 -0.000045 -0.501512 1.024146 -0.600520 -0.034216 0.875141 0.338366 0.406557 0.268038 0.064147 -0.598878 0.459087 -0.681492 0.516283 -0.451632 -0.128746 -0.421151 -0.987891 0.415308 0.859372 -1.342008 -0.110910
time 0.421241 0.244479 0.543472 0.528424 -0.782380 -0.252073 0.866709 0.167403 0.425542 -0.019854 0.013420 0.812220 0.387221 0.229068 0.446047 -0.997991 -1.201427 -0.443700 -0.608748 0.723251 -0.917469 -0.050433 -0.640085 0.555178 -0.410094 -0.686179 0.510566 -0.443680 -0.370443 -0.992535 0.458996 -0.260834 0.302238 1.133110 -0.091945 0.376141 -0.363694 0.217949 0.465826 0.444654 -0.122940 -0.778211 -0.770592 0.909045 0.071986 -0.894983 -0.410831 -0.363108 -0.606001 0.087034
animal -0.524452 0.407255 0.922878 0.340887 -0.885621 0.139341 -0.883522 0.415880 -0.736288 -0.106916 -0.021662 0.173470 0.605580 -0.447930 0.797487 0.558695 -1.002463 -0.277956 -0.277020 0.018963 -1.085804 -0.306247 0.017714 0.275170 0.184132 -0.502123 0.024430 -0.052852 -0.067945 -0.268357 -0.123725 -0.301509 -0.324686 1.649776 -0.933729 -0.028662 0.864153 -0.594521 -0.407335 0.797278 -0.029429 -0.634750 -0.280048 -0.295876 -0.390062 -0.901108 0.037030 -0.788247 -0.099982 -0.619835
does 0.738102 -0.693736 0.291415 0.808168 -0.213918 -0.686346 -1.572091 0.096153 1.060279 0.205063 0.950178 0.230038 -0.213396 0.174030 0.104868 -0.190298 0.123351 -0.101726 0.433906 0.617508 0.169065 -0.245242 -0.131162 -0.243477 -1.125742 -1.425274 0.085485 -0.649051 0.488043 -0.833695 0.461706 -0.439507 -1.259571 0.790813 -1.061064 1.180839 -0.363635 -0.571871 -0.351344 0.602468 0.203734 -0.146160 -0.855239 0.421008 -0.256003 -0.628532 0.294260 -0.755759 -0.891781 -0.199536
important -0.010857 0.869553 0.565359 0.447781 -0.696580 0.335255 -0.727154 1.077838 -0.077168 0.251126 1.195133 -0.549516 -0.151804 -0.644569 -0.152498 -0.357602 -0.273966 -0.629838 0.294066 -0.116889 -0.834927 0.224453 0.226311 0.518083 -0.299479 -0.354440 0.229699 0.500591 -0.811347 -0.680208 0.293173 -0.444308 1.057034 1.041932 -0.991164 0.478351 0.558596 -0.928032 -1.200583 0.745671 0.827429 -0.778826 0.061711 -0.406452 -0.589695 -0.449911 -0.092088 -0.131816 -0.615487 -0.210055
chapter 0.504793 0.137757 0.277276 0.207175 -0.143175 0.086434 -0.548351 0.378717 -0.073912 0.099240 0.227537 -0.669785 0.077972 -0.056438 -0.768637 -0.112584 0.008722 -0.014648 -0.561522 0.587272 -0.709385 -0.623841 0.846941 -0.056748 -0.620458 -0.587903 -0.600719 -1.058717 -1.325021 -0.912158 0.852905 -0.840688 0.240812 0.960959 0.061883 0.355857 1.171994 -0.667985 0.047519 0.941115 0.363846 0.114486 -0.106509 0.102449 -0.385743 -0.254589 -0.719818 0.758651 -0.725343 -1.217176
then 0.731094 0.083042 0.909108 -0.009946 -0.588898 0.708354 0.106884 -0.098969 0.062791 0.465067 -0.377261 0.076068 -0.256199 1.270051 -0.105861 -0.460855 -0.080928 -0.294993 -0.006567 0.354946 0.481427 -0.116425 0.315448 0.140083 -0.044811 -0.610973 -0.603306 -1.296825 0.177911 -1.178384 0.735565 -0.523892 -0.317816 0.996730 -1.141861 -0.379353 -0.058038 -0.610027 -0.259785 -0.118318 -0.848694 -0.320442 -0.386751 0.340840 -1.017208 -0.318782 -0.236755 0.040832 0.108183 -0.506377
light -1.378814 -1.762693 0.131979 0.105436 -0.632945 -0.695990 -0.196070 0.138928 1.123138 1.029542 0.013843 0.293512 0.241427 0.503706 -0.674656 -0.504731 -0.588364 -1.115567 -0.120196 0.705357 -0.744703 0.966679 0.144067 0.078910 -0.658728 -1.527215 -0.650079 0.513275 0.359382 -0.430399 -0.177805 0.373825 -0.594007 1.108144 -0.951388 -0.329045 -0.129889 0.212921 0.247837 -0.051271 -0.015535 1.477637 -0.431367 1.124797 -0.144967 0.697327 0.183286 0.655739 -1.081189 0.069447
b -0.171879 -0.533925 0.225626 -1.146802 -0.595106 -0.011107 0.022759 0.702995 -0.638630 -0.562454 -0.592101 0.312529 1.027739 -0.292298 -0.224508 0.339138 -0.551871 -0.000024 0.201144 0.928187 -0.680028 0.435347 -0.175500 -0.345645 -0.077561 -0.578390 -0.420151 -0.226473 0.194850 -0.642374 -0.069710 -0.130600 0.140809 1.270578 -0.447592 0.322529 -0.785072 -0.454891 -0.967481 -0.121911 0.043196 -0.364330 0.276899 0.228317 -0.598946 -0.338225 0.006027 0.514455 0.365927 -1.295262
three 0.365988 -0.447134 0.921023 0.348137 -0.000479 -0.369686 -0.793570 1.113678 -0.472336 0.957842 0.246784 -0.926887 0.992807 -0.874135 0.207465 -0.970822 -0.201316 -0.253962 0.098026 0.958321 -0.910243 0.942779 0.482640 0.613176 0.194533 -0.252909 0.259371 -0.627285 -0.305338 -1.590029 0.406482 -0.598534 0.081058 1.198313 0.576856 -0.244128 0.276775 -0.119291 -0.662364 0.066617 -0.007659 -0.934972 0.208686 0.339924 0.034615 -0.149069 -0.535461 -0.800601 0.210049 -0.029916
over -0.098182 1.163364 0.981483 0.644810 -0.484417 -0.152133 0.913867 0.216975 -0.230702 0.079205 0.168259 1.067147 0.312006 0.464197 0.083279 -0.692435 -0.804061 -0.633809 -0.432514 -0.051071 -0.394673 0.475524 -0.998139 0.236878 -0.605863 -0.974557 0.613528 -0.318608 0.244443 -0.825280 0.496788 -0.260327 0.316451 0.628273 -0.182598 -0.191633 0.590208 0.345561 0.487881 0.758935 -0.468385 -0.602701 -0.657694 1.183316 1.005747 -1.242358 -0.653512 0.178106 -0.293262 -0.139167
single 1.293569 0.446986 0.576973 0.041232 0.774949 -0.326893 0.072095 0.094002 -0.523245 -0.557103 -0.428333 -0.493122 0.842713 -0.189063 -0.403893 0.128483 -0.433124 -0.645849 0.156039 0.365569 -1.516466 0.632151 -0.887784 0.099029 0.163058 -0.384651 -0.262469 -1.144258 -0.128743 -0.584359 0.630671 -0.278017 0.249806 0.614733 0.189785 -0.188115 -1.125554 -0.943285 -0.312210 0.174515 0.554044 -1.066741 -0.995054 0.354913 -0.673808 -0.687864 0.055948 -0.584474 -0.634829 0.157177
where -0.008005 -0.081275 0.865421 0.616787 -0.959437 -0.664299 -0.363095 -0.121219 -0.194170 1.238646 0.906119 0.336471 -0.495501 0.303269 -0.702647 -0.902848 -0.889053 -0.447470 -0.043151 0.804421 1.030041 -0.180878 -0.021143 -0.345344 -0.861078 -0.033430 0.580014 -0.370843 0.563077 -0.174139 0.685770 0.581212 -0.454707 1.190985 -0.141576 0.312455 -0.654203 -0.523605 -0.800594 0.235112 -0.448228 -0.447916 -0.077622 0.469745 -1.003469 -0.488937 -0.114850 0.732600 0.805646 -0.081027
use 0.053076 0.075577 0.305955 0.472538 -0.736552 0.625191 -0.446131 0.886423 1.242112 -0.111123 -0.100189 0.072608 0.205946 -0.047643 0.048672 0.032946 -0.991136 -0.628404 0.505973 0.683265 -0.575797 0.032372 -0.287161 0.295319 -0.635946 -0.046699 -0.456902 -0.251535 -0.899986 -0.464265 0.496429 -0.601731 0.099195 1.099116 -1.195257 -0.258154 -0.141309 -0.447130 0.062784 0.712135 0.268856 0.436217 -0.246795 -0.317935 -0.308258 0.110824 -1.269646 0.200991 -0.151205 -0.265892
first 0.652424 0.211662 0.517949 0.014151 -0.793645 -0.092960 0.713082 0.247462 -0.490473 0.666694 -0.442146 -0.409961 0.085137 -0.140361 -0.533724 -0.877675 -0.245416 -0.339988 -1.061246 0.267609 -0.223051 -0.597706 0.617629 0.845884 -0.892738 -0.334207 -0.026468 -0.701093 -0.583842 -1.293134 0.402274 -1.003383 -0.032066 1.563469 0.060275 0.251344 0.075997 -0.104730 0.085876 0.340603 0.581843 -0.264411 -0.781981 -0.268708 -1.004366 0.253991 -0.372111 -0.536787 0.040853 -0.403907
chemical -0.928888 -0.841892 0.617519 0.284980 0.202230 0.556678 -0.837812 0.806502 0.341871 1.345406 -0.141620 0.051081 0.479587 0.559730 -0.282721 -0.566152 -0.571276 -0.900726 -0.272074 0.718148 -0.926279 0.220573 -0.070793 0.750289 -0.692557 -0.836824 0.275296 0.047051 -0.256706 -1.263340 0.316583 -0.458398 0.346732 0.741771 -0.988265 0.156672 -0.363359 0.311842 -1.132359 -0.132605 -0.439748 0.612444 0.054214 -1.048158 -0.598166 0.077203 -0.030668 -0.409867 -1.173780 0.073721
structure 0.866589 -0.806804 0.208633 0.395934 0.170640 0.032376 -1.352436 0.044887 -0.860288 0.779004 0.002495 -0.254626 0.782060 -0.594277 0.141620 -0.469916 0.182202 -0.134427 0.416171 0.532905 -0.570700 -0.708318 0.952554 0.017619 -0.446573 -0.245012 0.809729 -0.258359 1.246589 -1.117717 1.239782 -0.830529 0.245150 1.083329 0.153971 0.207443 -0.421319 -0.005033 -0.937622 0.075227 0.022000 -0.851855 0.097607 -0.463676 -0.690336 -0.129971 -0.171867 -0.495399 -0.709176 -1.060086
specific 0.549974 -0.842547 0.286373 0.674315 0.005371 -0.681182 -1.227593 0.628354 0.203011 0.370389 -0.061145 -0.070058 0.412949 0.644844 0.436561 -0.031084 -1.328520 0.209317 0.487474 0.174848 -0.922412 0.346366 1.114956 0.677473 -0.404851 -0.339577 -1.043670 -0.478196 0.575065 -1.307877 0.870158 -0.673084 0.858822 0.704045 0.041933 0.119467 -0.813621 0.297158 -1.302651 0.156245 0.352160 -0.512223 0.019760 -0.475585 -0.877332 -0.475426 -0.293337 -0.350923 0.806883 0.017578
growth -0.206478 -1.022359 -0.150306 -0.334132 0.069493 0.907354 -0.592675 -0.396868 0.311604 -0.192274 0.267965 0.047737 -0.430152 -0.116055 0.234879 0.103450 0.062855 -0.610972 0.591254 -0.519323 -0.962104 0.193803 0.110146 0.184420 -0.488951 -0.778039 -0.481261 0.069699 0.154716 0.300033 1.188270 -0.799213 0.193517 2.065833 -0.293699 -0.124448 -0.213523 0.443667 -0.656881 1.341812 0.577473 -0.499849 -1.309004 1.066317 -0.032652 -0.313993 0.312777 -0.026788 -0.430377 -0.821567
cycle -0.055395 -0.648698 0.955728 -0.201852 -0.563320 0.208787 0.285538 0.461767 0.122037 1.019770 0.180134 1.116799 -1.198605 -0.327280 0.762539 -0.494789 1.158861 -0.634638 -0.391445 0.780068 -0.870111 0.290207 0.162245 -0.761189 -0.512629 -0.636619 0.253469 -0.790385 -0.484912 -1.315455 -0.310527 -1.025837 -0.262608 1.457409 0.462808 -0.508238 0.013633 -0.520393 -0.826203 -0.267412 0.956656 0.277520 -0.771670 0.396488 -0.100421 -0.073934 0.229466 -1.327137 -1.581636 -0.130073
found 0.284281 -0.003584 0.978038 -0.306063 -1.103738 0.084098 0.107330 0.448937 -0.999858 0.456203 0.328879 0.009634 0.294718 0.292008 -0.434467 -0.862645 -0.396728 -0.212324 0.304073 0.556953 -0.251708 -0.043532 -0.405442 0.410430 -0.374069 0.814876 1.239948 -0.710569 0.200033 -0.809196 0.899415 0.676611 1.165717 0.820016 -0.023976 0.332639 -0.551224 -0.593571 -0.189707 0.706964 0.880888 -0.701300 -0.248812 0.375365 -0.183436 -0.233839 -0.293013 0.552812 0.099799 -0.677345
no -0.028364 0.170883 -0.162507 -0.016773 -0.402662 0.015503 0.149879 0.285823 0.098690 -0.189143 0.541101 -0.032445 -0.475262 0.665640 -0.107223 0.126772 -0.837445 -1.283503 -0.023067 -0.411916 -0.677866 0.236406 0.194917 -0.424651 -0.432080 -0.596341 1.477107 -0.431473 0.181820 -0.576932 0.370977 -0.588551 0.428925 1.178401 -1.384886 0.647414 -0.539801 -0.811237 -0.094302 0.677732 -0.238539 -0.482108 -0.767770 -0.174932 0.295515 -0.668408 0.324953 -0.761040 -0.630998 0.820304
information 0.654121 1.155122 1.251965 1.203165 -0.828071 -0.710677 -0.970512 0.549018 -0.289765 0.247701 0.850923 0.332326 0.135144 1.071368 -0.357959 -0.668743 0.645735 -0.440769 -0.567707 0.361495 -0.398409 0.408817 0.081922 -0.310617 -1.279854 -0.969534 -0.776495 0.536260 0.704086 -0.128386 0.727792 -0.458658 0.171499 -0.156679 -1.036672 -0.942418 -0.801507 0.360412 -0.524457 0.825546 0.131601 0.812712 -0.300824 -0.326215 -0.864328 -0.780223 -1.289229 -0.116718 -0.398128 1.170231
muscle 0.250791 0.159530 0.743166 -1.280429 -0.640272 -1.223165 -0.471843 0.444828 0.050654 -0.366191 0.591021 0.393757 -0.949222 -0.807963 0.638019 0.166744 -0.576036 -1.055660 1.161339 1.029620 -0.617343 0.067086 -0.171717 -1.371356 0.328713 -0.516455 -1.040223 0.219211 0.172139 -0.145385 -0.407497 -0.160482 1.583302 -0.000134 -0.260159 0.244212 -0.848039 0.211954 -0.819680 0.229847 0.400166 0.051472 -0.285426 1.469036 -1.089909 -0.014217 -0.733645 -1.082792 -1.510793 -0.194818
acid 0.230839 -0.538001 0.213126 -0.131509 -0.757306 -0.235195 -0.029874 0.883346 0.201208 1.886976 -0.407614 0.814067 -1.670828 0.704346 0.492857 -0.179012 0.241771 0.330124 0.109187 0.554032 -0.829156 0.390844 0.383698 0.236935 0.422700 -0.116414 -0.421084 -0.410169 0.152221 -0.929726 0.931477 -1.633614 -0.087172 1.244250 0.546460 -0.290671 -0.680187 -0.509605 -0.294472 -1.090322 0.874970 -0.710501 -0.224410 -0.820732 0.275816 -0.130875 0.392225 -0.069270 -0.052089 0.891696
evolution 0.056403 0.824434 0.289475 0.257906 -0.832453 0.270233 -0.158468 0.338626 0.344038 0.094509 0.203225 0.641151 0.604654 0.053237 0.477084 0.210442 0.263113 0.263808 -0.034534 -0.148104 -0.677308 -0.140325 0.166314 1.124488 -1.049684 0.374994 0.116365 -0.889266 -0.259157 -1.162144 0.797176 -0.382868 -0.111182 1.211193 -0.424550 0.173452 1.137833 0.347691 -0.392623 1.750988 -0.185116 -0.145732 -0.269513 0.060906 0.515373 -0.808155 0.233176 -0.834017 -0.904894 -0.111244
food -0.590086 0.190380 0.782678 1.328030 -0.948399 0.469758 -0.070500 -0.336087 0.273992 0.038072 0.282885 -0.139082 -0.490011 -0.056690 -0.115338 0.306798 -1.189620 -0.459284 -0.577422 0.327359 -0.741885 -0.395726 -0.608098 -0.310604 -0.675271 -0.331984 -0.370481 0.230568 0.013255 0.521345 0.181547 -0.441856 -0.268530 1.289455 -1.321573 -0.202842 -0.951290 -0.132315 -0.396579 -0.310739 0.245950 -0.443580 0.050118 -0.901267 -0.536874 -0.378715 -1.063170 0.337039 -0.293620 0.015579
population 0.601181 -0.756536 -0.220075 -0.279956 0.208332 1.530835 0.101724 -0.672268 -0.486381 -0.713417 0.478216 0.564796 0.914181 0.737856 0.476513 0.538120 -0.244832 -0.225248 0.706795 1.004247 0.489810 -0.806533 -0.383350 0.293771 -0.468437 0.071845 0.474850 -0.511430 0.252940 -0.585252 0.858372 0.085188 -0.556465 0.788689 -0.272865 1.172139 -0.414331 0.536658 0.349018 1.202674 -0.476697 -0.800881 -0.498377 0.616280 0.017164 -1.979257 -0.601558 -0.104347 -0.442461 -0.338620
result 0.045048 -0.378967 0.595346 0.183232 0.372948 -0.731162 0.263551 0.402134 -0.188052 0.527277 0.503981 0.222273 -0.388989 1.116704 -0.116758 0.239075 -0.310951 -0.326938 0.210263 0.111942 -0.664248 0.232010 -0.473927 0.050775 -0.188740 -0.384131 -0.075308 -0.606154 0.034618 -0.344627 1.028389 -0.338779 0.418201 0.578283 -0.336288 0.674375 -0.121627 -0.300727 0.016000 0.977396 0.186444 -0.171209 -0.554387 0.250467 0.183100 -0.808972 0.148469 0.043579 -1.176971 -0.212579
long 0.988591 0.437698 0.394276 0.848144 0.115245 -0.748943 0.567067 0.813096 0.794541 0.238076 -0.109493 1.315039 -0.165688 -0.065172 0.438875 -0.554874 -0.914087 0.211546 -0.269694 0.389315 -1.076479 1.136573 -0.976144 -0.671113 -0.425237 -0.874485 -0.304627 -0.174367 0.258545 -0.329500 0.931212 -0.250394 0.675716 1.083214 -0.199595 -0.719022 0.396983 -0.224986 0.784391 -0.161395 0.441811 -0.771440 -1.154740 1.070997 0.367104 0.310897 -0.108996 0.350440 -0.198015 0.225982
even 0.344704 -0.064082 0.136515 0.240366 -1.109051 -0.373721 0.217135 0.012496 0.239944 -0.040757 0.114303 0.566194 -0.132330 0.149681 0.058920 0.468022 -1.761804 -0.499233 0.105613 0.398356 -0.411144 0.195527 -0.279585 0.249778 0.230191 -1.106073 0.626065 -0.753108 -0.731384 -0.199279 0.576301 -0.116305 0.112943 0.938647 -0.729290 0.313978 -0.021019 -0.624311 0.232046 0.212539 -0.274049 -0.518014 -0.898008 0.448032 0.388788 -0.785308 -0.075215 -0.100977 -0.124680 -0.499711
change 0.406086 0.033264 -0.003891 0.600437 -0.141920 -0.131683 -0.546756 0.651293 0.714809 0.694488 0.812936 0.698008 -0.391358 0.193150 0.476145 0.276208 -0.740884 -0.244365 0.501421 0.774816 -1.070938 0.106619 -0.649314 0.989946 -0.804855 -1.226287 0.435118 -0.362528 0.193874 -0.826214 0.954481 -0.678545 -0.170072 0.851590 0.036053 0.636190 0.103302 0.367795 -0.460058 -0.099072 -1.010681 -0.703835 -0.193293 0.220957 0.060035 -1.347690 0.418155 0.183964 -1.091561 0.456925
development 0.192376 0.029312 1.029831 0.050584 -0.349269 -0.404927 -0.397686 0.232867 -0.538995 0.137226 0.910593 0.161202 -0.128435 0.158001 0.585112 -0.481208 0.434143 0.204289 -0.273839 -0.671701 -1.257961 -0.229134 -0.092167 0.019583 -0.882475 -0.487181 -0.479133 -0.283543 -0.375405 0.068370 0.253609 -0.333132 -0.451825 2.161519 -0.473155 0.316881 0.635001 0.092608 -0.113838 1.188728 0.086406 0.055043 -1.036217 0.804293 -0.556918 -0.194317 0.959170 -0.521364 -0.176307 -0.567842
several 0.180752 0.268600 0.963777 0.545546 -0.141099 -0.093242 0.424103 0.936346 -0.455892 0.595269 0.374358 -1.050793 0.483635 0.472857 0.363621 -0.459587 -0.203665 -0.131732 0.347742 -0.063826 -0.528433 0.707941 0.174496 0.779437 -0.229506 -1.092699 0.156708 -0.387842 -0.506216 -0.909445 0.839209 -0.272058 0.469841 1.171950 0.233084 -0.709485 0.727867 -0.063469 0.100898 0.609814 0.738143 -0.219127 -0.237710 -0.071800 0.508719 0.107421 -0.422851 0.122399 0.596913 -0.609327
amino 0.247877 -0.601722 0.355746 0.237103 -0.620653 -0.135752 0.059261 1.095960 0.311589 1.893931 -0.647744 0.104009 -0.589695 0.839258 0.320475 -0.722760 -0.215450 0.399092 -0.424952 0.977509 -0.933492 0.485430 0.148423 0.434414 0.760654 -0.121417 -0.419770 -0.117161 0.241231 -1.209993 1.295157 -0.789978 0.544992 1.258038 -0.124508 -0.316738 -0.938280 -0.110180 -0.702434 -0.869556 0.849954 -1.442532 0.236170 -1.073510 0.066649 -0.258914 0.189808 0.043856 0.633999 1.004456
must -0.035239 0.010189 0.711431 0.365108 -0.609480 0.792917 0.525302 0.134224 0.656144 0.114642 -0.115616 -0.207453 -0.123820 1.116112 0.667898 -0.118068 -0.829632 -0.039707 -0.554459 0.255777 0.667278 -0.187508 -0.370168 0.058430 -0.080717 -0.904888 0.064138 -0.514837 -0.330561 -0.320519 0.103632 -0.236528 0.487813 0.813806 -1.614172 -0.092592 0.127309 -0.542732 -1.006873 0.425920 -0.107799 -0.392792 0.262321 -0.278922 -0.907581 -0.684843 -0.618781 -0.674243 -0.005430 -0.801415
number -0.052063 0.226128 0.520917 -0.605927 0.316386 0.252407 0.066769 0.414493 -0.207063 -0.705790 0.378314 -0.134632 0.990655 0.579950 0.048003 -0.399259 -1.250234 -0.164094 -0.266101 0.396101 0.285037 0.313256 -0.379249 -0.030782 0.142335 -0.246770 1.020746 -0.960123 -0.044412 -0.319403 1.546552 -1.147887 -0.152110 0.634530 -0.010272 0.966874 -0.799881 0.457183 0.441411 0.564766 0.084633 -0.426076 0.586136 0.381080 0.397788 -0.493740 -0.881409 -0.315244 -0.460181 -0.390978
among -0.265151 0.660437 1.016175 -0.509973 -0.682280 0.534485 -0.651114 -0.003887 -0.540476 0.937056 0.752816 1.035288 1.005831 -0.298608 0.488115 0.192575 -0.641921 0.118802 0.231580 0.123333 -0.221211 0.038036 -1.185884 1.223306 -0.513006 -0.160925 0.834269 -0.750900 -0.779816 -0.742705 1.412085 0.648675 0.513545 0.216456 -0.640688 -0.092200 0.362417 0.036198 -0.213869 0.903956 0.379709 -0.727849 -0.962864 -0.632710 0.250832 -0.378586 -0.491524 -0.293192 0.101870 -0.205275
bacteria 0.507515 0.017698 0.444048 -0.635578 0.170907 0.564318 -0.111103 0.688290 -0.091379 -0.000343 -0.522028 0.326933 -0.124261 -0.456941 -0.677019 0.795391 -0.045397 -1.050743 1.248527 0.077365 -0.126029 -0.190144 -0.365306 0.144218 -0.832488 0.347603 0.289106 -1.198624 -0.475764 -0.514837 0.564142 0.074244 0.348147 0.517376 -0.377160 -0.942246 -0.382398 -1.768851 -0.824723 0.596312 0.478205 0.185519 -0.787406 -0.291117 0.044450 0.067018 -0.656425 0.254062 -0.046029 -0.767314
living -0.007653 0.131951 0.820754 -0.255211 -0.921825 0.580965 -0.606283 0.682167 -0.453464 0.252495 -0.597885 -0.292925 1.361533 -0.706127 -0.286317 -0.342018 -0.611083 -0.659855 -0.321557 0.871848 -0.613250 -0.349537 -0.703022 0.409960 -0.418145 -0.404311 1.547162 -0.981993 -0.430611 -0.379021 0.091742 0.729955 0.305720 0.419199 -0.631240 -0.378268 -0.496121 -0.964442 -0.479325 0.260479 0.654917 -0.032505 0.145516 -0.411593 -0.401303 -0.199105 -1.105981 -0.324372 -0.599652 -0.806910
much 0.735860 -0.134231 -0.429863 0.878874 -0.686501 0.544472 -1.059443 0.032209 -0.434308 -0.177074 0.627124 0.005872 0.095810 0.188439 0.242337 -0.005379 -1.422426 -1.048767 -0.398798 0.166322 0.192188 -0.227300 -0.358652 -0.542090 -0.530946 -0.849851 1.065085 -0.615009 0.279343 -1.355128 0.761592 -0.817595 0.291835 -0.350606 -0.628665 -0.157915 -0.318866 -0.495656 1.098735 0.451756 -0.190892 0.188589 -0.945853 0.906117 -0.007231 -0.351499 -0.427455 0.674850 -0.332098 0.060434
you 1.017448 -0.062232 -0.923471 0.931625 -0.807671 -0.269729 -0.256657 0.124825 1.277131 -0.238986 -0.099736 -0.824893 -0.025880 0.354612 -0.160537 -0.404929 -0.408762 0.297494 -0.651105 1.647635 -0.274226 -0.659888 0.180193 -0.507006 -0.250443 -1.454986 -0.226385 -0.324377 -0.423856 -0.756142 0.833517 0.154520 0.406412 0.206204 -1.148353 -0.131726 1.136162 -1.268349 -0.172984 0.573160 -0.356843 -0.528363 -0.437805 0.507503 -0.364429 -0.645827 -0.433112 0.059819 -1.086847 -0.577101
after 1.111970 0.490506 0.637643 0.221846 0.101032 0.108895 0.669661 0.285383 -0.120326 0.197436 0.187678 0.390901 -0.386594 0.400997 -0.749713 -0.929164 -0.250144 -0.273162 0.038571 0.143694 -0.293483 0.156722 0.154546 -0.131754 -0.242803 -1.179324 -0.361934 -0.526899 -0.358969 -0.648283 0.102780 -1.028033 -0.630050 1.786809 0.286093 0.013395 -0.024103 0.089513 0.605775 -0.046817 -0.171980 -0.055817 -1.095905 0.570938 -0.217307 -0.129317 0.165644 0.082200 0.703202 -0.399753
out 0.212785 -0.099641 0.629000 0.211616 -0.817416 0.226888 0.829391 0.087075 0.260744 -0.667121 -0.270158 0.278093 -0.414470 1.253691 -0.201233 -0.355142 -0.081526 -0.574722 -1.054390 -0.454686 0.335491 -0.452354 0.357320 0.351859 -0.148329 -0.777019 -0.197363 -0.149929 0.785769 -1.207840 -0.190857 -0.194815 -0.066136 0.729441 -1.242836 -0.862636 0.008953 -1.691909 -0.714768 0.040869 -0.231529 0.051380 0.870478 0.381404 0.703449 -1.028223 -0.995394 0.053747 0.025053 -0.463635
individuals 0.302572 -0.295674 0.251787 -0.800809 0.151789 0.657583 0.028766 -0.113091 -0.126270 -0.299130 0.180124 0.850091 0.878340 0.963084 0.581459 1.065131 -1.113691 -0.497474 0.283009 0.947805 0.162901 0.279197 -0.524531 -0.113835 -0.090407 -0.195550 0.652366 -1.306148 -0.772191 -0.485288 0.684719 -0.051245 -0.390631 0.474671 -0.169173 0.908392 -0.471415 0.211740 0.161721 1.104957 0.087163 -0.697449 -0.491874 0.009723 0.091759 -1.167260 -0.605801 -1.353924 0.518133 -0.016707
c -0.832810 -1.154559 -0.475267 -0.591013 -0.440579 0.638121 0.131950 0.707573 -0.090844 0.414629 -0.501195 0.569908 0.771780 -0.515736 -0.954319 -0.354497 -0.115776 -0.288125 0.208279 1.459166 0.620411 0.888949 -0.914943 -1.134735 0.458814 -0.697519 -0.106895 0.265353 -0.080073 -0.900867 0.577229 -0.667109 0.006086 0.949825 0.096416 0.472325 -0.333931 -0.328811 -0.285583 -0.106227 0.423818 -1.053923 -0.798348 0.393112 0.090634 -0.501107 -0.530072 1.174091 0.103388 -1.059084
surface -0.985588 0.124037 -0.002483 0.260267 -0.368685 -0.287937 0.057963 0.180536 -0.463968 -0.269101 0.048826 0.772318 0.880903 -0.287638 -0.400008 -0.581783 -2.092721 -0.959459 -0.353177 -0.086714 0.810499 -0.582023 0.480787 -0.439865 -0.502072 -0.731019 0.700200 0.133113 1.378460 -0.131086 0.530097 -0.092389 0.727755 1.288516 0.071414 0.099965 -0.755721 0.148997 -0.899009 0.208101 -0.509506 -0.502038 0.979725 0.843305 -0.524063 -0.844658 -0.489445 0.941149 0.284149 -1.193182
major -0.194068 -0.077200 0.884954 0.482814 -0.338427 -0.618874 -0.591769 0.540888 -0.429586 1.071951 0.866423 -0.174439 0.791538 -1.281267 0.619695 -0.151805 0.220704 -0.275620 -0.117631 -0.189544 -0.822852 0.251317 0.500964 1.102697 -0.187162 -0.702362 0.359904 -0.262275 -0.879312 -0.800884 0.848028 0.177885 0.408388 1.343149 -0.567176 -0.175620 0.886456 -0.479159 -0.118210 0.235770 0.212296 -0.950263 -0.033632 -0.140616 -0.343857 -0.064450 -0.253368 -0.193531 -0.662306 0.237598
systems 0.517052 -0.111018 1.259954 0.280542 -0.545779 -0.550901 -2.104869 0.933428 -0.211269 -0.379039 -0.147633 -0.400212 0.518089 -0.340003 0.921946 0.094282 -0.651233 -0.036999 -0.862132 0.758869 -1.236723 0.728702 0.547215 -0.679846 -1.394055 0.055743 0.100957 0.177733 0.505359 -0.482606 0.519734 -0.297307 0.301475 -0.427762 -0.951579 0.023989 0.480438 -0.390016 -0.822933 0.758282 -0.125522 0.275226 -0.056156 0.210079 -0.531803 0.526116 -1.351567 -0.631795 -0.357180 -0.652905
known 0.661669 0.595120 -0.107895 -0.326360 -0.398081 0.011631 -0.390281 0.686115 -0.334411 0.928913 0.035091 0.971118 0.665642 -0.330157 -0.409099 0.032829 -0.196427 0.121203 0.441006 0.398831 -1.070602 -0.692630 0.146813 0.438401 0.213470 -0.153008 0.586695 -0.404789 -0.115614 -0.064018 0.820769 -0.372936 0.788776 0.939759 -0.580569 -0.331362 0.054516 -0.954951 0.327974 0.457448 1.169624 -0.838163 -0.705364 -0.020904 -0.328846 -0.389440 -0.434162 0.297305 -0.598697 0.206128
molecule -0.211431 -0.187608 -0.161602 0.949308 0.515562 0.433529 0.175717 0.606649 0.062251 0.483118 0.118499 -0.974184 0.779441 0.654506 -0.620643 -0.376344 -0.290898 -0.510523 0.315601 0.621545 0.013282 1.365835 0.118935 -0.478068 -0.272784 -0.765794 0.423586 -0.847897 1.055472 -1.455050 0.340788 -1.025929 -0.068140 0.814724 -0.546112 -0.166636 -0.894924 -0.776855 -0.225171 -1.287367 0.324632 -0.813638 0.517189 -0.183287 -0.655327 -0.166172 -0.265374 0.057973 -0.697265 0.506707
within 0.096790 -0.151909 1.420534 0.058043 0.572875 0.249088 0.032479 0.189594 -1.429349 0.423282 0.029973 -0.079372 0.909715 0.415027 -0.385112 -0.271485 -0.753620 -0.207677 -0.399254 0.044134 -0.110591 0.019047 -0.729162 0.155268 -0.977179 -1.398199 0.804521 -0.458666 0.441550 -0.118283 0.223719 0.256579 0.412612 0.757156 0.226201 0.544761 -0.040995 0.219042 -0.668489 -0.271384 -0.310131 -0.674077 -0.793246 0.073196 -0.831210 -0.851843 -0.273049 0.062924 0.058649 -0.833781
potential -0.197965 1.147511 0.406111 0.573666 0.067602 -0.852644 -0.821710 0.530718 0.438152 -0.019337 0.302555 0.366426 -1.324969 -0.141446 -0.042966 0.717432 -1.254537 -1.929281 0.087265 0.183861 -0.615992 -0.222760 -0.131428 0.510646 0.299432 -1.242431 -0.143181 0.345230 0.011621 -0.086276 0.263317 -0.727176 0.241958 -0.397430 -0.177878 0.803599 0.004915 -0.342731 -0.735010 0.214010 -1.644428 -0.550545 0.188338 1.001020 -0.361944 -0.849933 0.526186 -0.143934 -1.340104 -0.466683
function 0.770536 -0.498903 -0.146097 0.665160 -0.583396 -0.666057 -0.650279 0.560355 -0.033509 0.496833 0.573399 0.054189 0.206859 0.037465 0.846832 -0.119952 -0.259630 0.765140 0.091469 0.539045 -0.499611 -0.179682 0.554988 -0.076795 -0.642577 -0.189790 0.245972 -0.196437 0.731690 -0.858136 0.576573 -0.956889 0.117611 0.815469 -0.366651 0.473205 0.031143 -0.454704 -0.828023 0.702926 0.429243 -0.400043 -0.020247 -0.054544 -0.610244 -0.424393 0.052638 0.380052 -0.254385 -0.691218
would 0.456893 -0.683147 -0.593853 0.333865 -0.599306 0.275720 0.075804 0.225347 1.013252 -0.188832 -0.346256 -0.190706 -0.322277 1.035797 0.118377 -0.221058 -0.186434 -0.184603 -0.832273 0.606095 0.564433 0.066509 -0.562875 0.029795 -0.127933 -1.254961 0.724379 -0.956036 -0.163924 -0.570901 0.840426 -0.230566 0.029404 0.465404 -1.361820 -0.055730 -0.392880 -0.834575 -0.013997 0.619268 -0.190850 -0.399379 -0.152813 0.481440 -0.457347 -0.682444 0.129190 -0.203468 -0.211725 -0.556810
o -1.302304 -0.780910 -0.845078 -0.233390 -0.857138 0.500351 -0.599002 1.316993 0.507395 0.465945 0.575114 -0.040405 -0.199025 0.521134 -0.268826 -0.432335 -0.580764 -0.758814 0.470845 0.358611 1.576970 0.704761 0.174562 -0.579021 0.329476 -0.760300 0.384853 0.318183 0.825699 -0.766361 0.322299 -1.384905 -0.554178 0.851889 -0.404680 0.575851 -0.203480 -0.695863 -0.288399 -0.220216 0.535659 -0.537325 0.291018 0.216748 0.494936 -0.443523 -1.025087 0.397360 -0.243084 0.039167
become 0.400449 0.749556 0.238309 0.129314 -0.527950 0.054481 -0.633257 0.362426 -0.453085 0.593750 0.009283 0.083481 0.232887 0.409615 0.225818 0.185121 -1.368566 -0.743426 0.418449 -0.535982 -0.099052 0.742483 -0.476174 -0.055899 0.865211 -0.277392 0.208980 -0.749882 -0.103927 -0.256985 0.319071 -0.531480 0.450026 0.447889 -0.906875 -0.023240 0.413257 -0.333092 0.359481 0.867169 -0.690926 -0.642121 -0.266028 0.857367 -0.607836 0.412889 0.710944 -0.790953 0.684873 -0.905718
high -0.334750 -1.458714 -0.280925 -0.572404 -1.432750 0.314228 -0.344866 -0.041999 0.097646 -0.208039 0.456073 0.745098 -0.624376 0.850399 0.450905 0.282875 -1.730991 0.195312 0.532112 1.270682 0.148085 0.160002 -0.387418 0.028051 0.208329 0.480967 0.547652 -0.163515 0.777415 -0.481370 0.804332 -0.357334 0.295149 0.785231 0.104832 -0.068987 -0.102747 -0.140024 -0.130334 0.141958 0.508289 -0.299756 -0.208995 0.893730 0.397530 -0.736455 -1.300377 0.839005 -0.701944 -0.052242
plasma 0.720329 0.139689 0.883240 -0.347918 0.929768 -1.094766 -0.541245 0.776511 -0.587440 0.490908 0.490230 -0.093592 -0.395965 -0.071761 0.014716 0.749216 -0.655168 -1.072687 -0.391525 0.434920 0.201959 -0.765793 0.993285 -0.036608 0.336706 -1.263827 0.259946 -0.775700 0.926477 -0.122734 0.356932 -0.073282 0.516876 0.486244 -0.247342 -0.008940 -0.198284 -1.133510 -1.100510 -0.224351 -0.513424 -0.153896 1.334614 0.704102 -0.247169 -0.640163 0.533056 0.033565 -0.444391 -0.988057
enzyme -0.220655 -0.518664 -0.230986 0.511238 0.014368 -0.054616 -1.476388 0.238469 -0.473303 0.658400 0.144957 -0.500376 0.242739 0.798192 -1.269562 -0.550942 -1.077704 -0.358431 0.660035 -0.265632 -0.486899 0.227388 -0.300489 0.234439 0.537351 -0.181709 -1.551304 0.088105 0.201348 -1.388880 0.792081 -1.932727 -0.207854 0.306836 -0.206855 1.169840 -1.350286 0.281990 -0.231380 0.232526 -0.058506 -0.122563 -0.558943 -0.635356 -1.319337 -0.236765 0.835331 0.355553 -0.187760 0.309542
years 0.516990 1.417188 0.126782 -0.266082 -0.944877 0.029866 1.457393 0.832472 0.165707 -0.198995 0.129211 0.148304 0.415949 -0.410390 -0.285524 -0.847608 -0.337902 -1.407433 -0.378920 0.666325 -0.211945 -0.099098 -0.414766 0.361887 -0.586540 -1.355399 0.768292 0.259974 -0.635172 -1.205165 0.701101 -0.288735 -0.159735 1.413145 0.457509 -0.339520 0.084897 -0.492111 1.605662 0.417958 0.251229 -0.524490 -1.483530 0.931275 1.214786 -0.325215 -0.633370 0.303756 0.616951 -0.118263
group -0.637292 0.479107 -0.175849 -0.488460 -0.702052 0.033711 0.037181 0.607185 -0.118861 0.850839 -0.759935 -0.086750 1.384707 -0.223703 0.407838 0.492306 -0.277192 -0.030876 0.263415 1.046603 -0.893230 0.285733 -0.170292 -0.269748 0.323727 -0.303405 0.298070 -0.671827 -0.442638 -0.816156 1.209693 -0.192165 0.445556 0.900501 -0.040307 -0.152341 -0.633729 -1.154785 0.182613 -1.029659 1.352696 -1.668996 -0.546200 -0.664198 -0.991082 -0.077627 -0.282340 -0.026209 -0.189374 0.286112
well 0.606694 -0.067900 0.355397 1.183800 0.059305 0.377114 -0.267443 0.702426 -0.404373 0.846963 -0.051144 0.801702 0.492635 0.119094 0.006131 0.414541 -0.682611 -0.161613 0.166039 -0.092849 -0.201607 -0.399735 -0.123182 -0.270800 -0.008937 0.260079 0.086789 -0.529191 -0.039264 -0.388567 0.235529 -0.461784 0.492773 0.926397 -0.946595 0.184499 0.387665 -0.488232 0.419280 1.030477 0.968963 -0.434395 -0.212519 -0.039680 0.036232 -0.042586 -0.465489 0.323232 -0.057992 -0.737587
complex 0.976362 -0.597610 0.047632 0.563791 0.244819 0.335374 -1.021254 0.513460 -0.905910 -0.023139 0.013955 0.244215 0.713817 0.036284 0.121938 0.237713 -0.190008 -0.538974 0.141451 -0.006533 -0.635140 0.307132 0.017063 -0.397678 -0.292496 -0.976489 0.045238 -0.432140 -0.038010 -1.300144 1.507677 -0.953751 0.573386 0.385399 -0.240523 -0.259213 -0.668960 -0.139069 -0.640734 0.207429 0.060401 0.109078 -0.350628 -1.017184 -0.519775 0.229913 0.768312 0.059107 -0.583991 -0.360810
e -0.325554 -0.211119 -0.998365 -0.622053 -0.463427 0.229660 -0.349843 1.018847 0.518092 0.025029 -0.573122 0.941705 0.021138 0.160110 -0.326720 -0.037107 0.522022 -0.850493 -0.503975 0.908309 -0.469097 1.363537 -0.894991 0.064165 0.331414 0.168690 0.939868 -0.170171 0.395668 -0.997465 0.475830 -0.979063 -1.023585 0.403871 -0.155488 -0.025462 -0.898299 -1.614774 -1.475445 0.384500 -0.713435 -0.266264 -0.047728 0.744872 0.159362 -0.395504 1.213683 0.741408 0.272395 -0.661104
rate -0.169183 -0.813473 0.198503 -0.555834 -0.610514 -0.122653 -0.746742 -0.566417 0.174784 -0.551726 0.193864 0.785989 -0.336519 0.899106 0.553227 -0.381295 -1.699831 0.195621 -0.219591 0.415962 -0.313890 -0.515445 -0.084237 0.141231 0.439341 -1.085296 -0.559088 0.097523 0.372218 -0.255185 1.190476 -1.850271 -0.612128 0.514535 0.373338 0.897103 -0.348889 0.680921 0.541094 0.412527 0.039372 0.168662 -0.557794 1.098046 0.047798 -0.969638 -0.758490 0.423895 -0.993051 -0.173821
acids 0.643720 -0.538169 0.745876 0.283561 -0.627299 0.169126 -0.113937 0.853276 -0.011933 1.679563 -0.615614 0.039109 -0.732969 0.627028 -0.266709 -0.875716 0.079447 0.288326 -0.897431 1.291681 -0.761563 0.175803 0.041731 -0.307397 0.516089 -0.470881 -0.237313 -0.035291 0.155527 -1.205445 1.383090 -0.883382 1.000003 0.962104 -0.895803 -0.684535 -0.827118 -0.091566 -0.830967 -0.809003 0.796050 -1.168432 0.637690 -1.244787 0.438506 0.399384 -0.273902 0.310249 0.676136 0.823168
process 0.532025 0.275194 0.579647 -0.010309 -0.218161 -0.071707 -0.578371 0.273116 0.111545 -0.050384 0.123209 0.134682 -0.172625 0.519230 -0.654592 -0.068314 0.137159 -0.334198 -0.411490 -0.456715 -0.594954 0.248839 0.461381 0.043983 -0.900127 -1.295092 -0.425487 -0.387543 0.126865 -0.491912 0.850053 -1.118187 0.153283 0.469420 -0.233072 0.465984 -0.027750 -0.211044 -0.474203 0.111699 0.591242 0.221156 -0.423821 -0.164178 -0.194444 -0.004042 -0.325745 -0.794628 -1.123488 -0.161995
results -0.161409 0.085635 -0.393355 -1.167569 -0.513437 -0.874897 0.497835 0.418337 0.305641 -0.208610 0.425069 0.479063 0.204673 1.141107 -0.828221 0.270064 -0.000934 -0.382388 -0.426079 0.622482 -0.930801 0.865523 0.339648 0.968283 -0.814147 -0.028218 0.138269 -0.500031 0.373883 -0.370870 0.607958 -0.912145 -0.468178 0.454935 -0.465497 0.737074 -0.656341 -0.440836 -0.635196 0.859006 -0.304956 0.438346 -0.656560 0.713408 0.111336 -0.501245 0.412483 0.389443 -0.731477 -0.540182
evolutionary 0.161812 1.353833 0.905121 0.592634 -0.482818 -0.233056 -0.099006 0.547669 1.096277 0.183751 0.803668 1.296115 0.736423 -0.240261 0.762837 -0.764034 -0.458309 0.185652 0.239715 0.369416 -1.248041 0.203300 -0.728583 1.768404 -0.472386 -0.006191 0.141574 -0.183235 -1.019010 -0.715449 1.210543 -0.074154 0.124188 0.743942 -0.758419 0.060809 1.140889 0.346609 0.327008 0.693077 -0.501922 -0.368615 -0.477601 0.292242 -0.313570 -0.431356 -0.292486 -0.161157 -1.364448 0.451915
earth -0.942575 0.883032 -0.164314 -0.156208 -1.087423 0.860894 0.214945 0.578606 -0.073428 0.295965 -0.013018 1.128334 0.860173 -0.366166 -0.230218 -1.118488 -0.460836 -0.658232 -0.829715 0.474734 0.008542 -0.880001 -0.098276 0.566151 -0.571001 -0.124671 1.789210 -0.094786 0.283347 -0.911243 0.510811 -0.113942 0.229518 1.325374 -0.165126 -0.614649 0.472469 -0.406843 -0.007822 0.628943 -0.076818 0.076237 -0.343861 0.385673 0.271267 -0.186442 -0.081641 0.124946 -0.749539 -0.392550
like 0.596765 -0.704761 0.249129 0.846085 -0.035957 -0.558393 -0.585769 0.046951 -0.240882 0.039508 -0.511244 -0.340799 0.095612 -0.442224 -0.390158 -0.164133 -0.316462 -0.669550 -0.509409 0.310765 -0.951086 -0.137019 0.041638 -0.522932 -0.499380 -0.308487 0.109707 -0.723178 0.371522 -1.007220 0.357638 -0.104465 0.622985 -0.043731 0.035575 -0.358011 -0.216247 -0.586703 -0.051794 0.223413 0.211996 -0.297681 -0.755644 0.403516 -0.132199 0.018100 0.034248 0.305818 -0.442187 -0.414423
t 0.198514 -0.794512 -1.184650 -1.111543 -0.608977 -0.112074 -0.311502 0.763640 0.888416 -0.756398 -0.738265 0.063804 0.215789 -0.085657 -0.794674 -0.362562 -0.662248 -0.306427 0.322718 1.246756 0.618385 0.394039 0.114371 -0.884729 0.287189 -1.428523 -0.016972 -0.250902 0.346911 -0.920801 -0.167915 -0.660696 0.759305 0.193223 -0.350481 -0.215548 -0.913122 -0.339108 -1.561693 0.157313 -0.587626 0.345772 -0.637394 0.294739 -1.134703 -0.392934 0.397799 -0.364537 -0.010842 -0.727610
i -0.562213 -0.125388 -0.841908 -0.861548 -0.128295 0.048165 0.349501 0.468246 0.760407 0.354282 -0.223351 0.331290 0.460170 0.631926 -0.367095 -0.537085 0.325877 -0.029316 -1.052124 0.965026 -0.182517 1.756549 -0.496143 -0.092934 0.035959 -0.801416 0.896271 -0.594717 0.636561 -1.401758 -0.093879 -1.200443 -0.790207 0.292378 -0.094534 -0.502397 -0.325159 -0.813534 -1.375052 0.409637 0.226214 0.380025 -0.342484 1.113161 0.178374 -0.138657 1.458574 0.051913 0.074247 -0.263043
sequences 1.947721 0.472387 0.275281 0.696943 -0.162594 -0.659948 0.213587 0.972946 0.014803 0.621905 0.607853 -0.033287 -0.000775 0.520311 0.157321 -0.388048 -0.437438 0.551146 0.217641 0.562870 -0.127985 0.446083 -0.649768 1.166414 0.389658 0.229313 -0.561379 -0.867908 -0.136047 -1.136733 1.736388 -0.834026 0.759199 -0.206467 0.218250 -0.613735 -0.618377 -0.264320 -0.512059 0.913888 0.450119 -0.562125 -0.128471 -0.648827 0.053236 -0.374431 -0.258119 0.260515 0.621542 0.605724
very 0.613404 -0.386294 0.462003 0.632034 -1.233392 0.128275 0.350408 0.078688 -0.615682 -0.088955 0.594206 0.730629 -0.125444 0.640900 -0.222051 -0.162864 -2.045346 -0.141580 -0.337140 0.065780 -0.306488 0.996911 -0.258148 -0.487708 -0.388500 -1.096733 0.873400 -0.213563 0.044858 -0.726664 0.816398 0.273789 0.936075 0.442736 0.196918 0.014899 0.551028 -0.466097 0.152108 -0.091645 0.730384 -0.519159 -0.331804 0.256727 -0.373258 -0.044394 -0.204731 0.213576 -0.185413 -0.456767
fungi -0.349741 -0.490969 0.608483 -0.482098 0.258901 -0.405116 -0.403075 -0.234006 0.340352 0.539864 -0.352997 0.835565 -0.014065 -1.310626 0.437499 1.308221 0.398479 -0.290752 0.403309 0.827882 -0.660510 -0.632456 -0.416991 -0.613911 0.000928 0.317620 0.436287 -0.947085 -1.199280 0.242576 1.231452 0.977171 0.241852 0.603701 0.149912 -0.622888 0.037761 -1.060175 -0.570319 0.650047 1.193446 -0.504896 -0.668043 -0.852999 0.074465 0.381374 -0.141062 -0.342244 -0.186339 -1.501096
sequence 1.580508 0.534397 0.180869 0.828717 0.027891 -0.491868 0.261623 0.438062 0.050507 0.841539 0.052684 0.272518 -0.335559 0.932321 -0.274570 -1.029143 0.361041 0.309558 0.185565 0.388839 -0.412094 -0.134145 0.218138 0.911467 -0.088943 -0.227506 -0.841360 -0.495502 0.482513 -1.268264 1.263593 -1.252832 0.099002 0.634735 0.396070 0.094840 -1.128897 -0.102220 0.050361 -0.040991 0.577595 -0.779753 -0.427467 -0.459531 -0.611056 -0.848118 0.190298 0.116888 0.024762 0.848373
atp -0.052125 0.275494 0.321831 -0.538171 -0.319689 0.774448 -1.259125 0.359526 0.632806 0.603264 -0.026976 -0.850258 0.019113 0.664357 -0.334043 -0.240386 0.213328 -0.783312 0.575750 0.348751 0.346339 0.568157 0.381314 -0.148496 -0.227744 -1.332136 -0.425895 -0.443622 0.137717 -0.196797 0.823470 -1.831473 -0.642678 0.090089 -1.341917 0.543431 -1.125694 0.142557 0.185330 -1.058850 0.186026 0.356049 0.071840 -0.158379 -0.512394 1.223433 -1.343855 0.191771 -1.021469 -0.199658
tissue -0.509995 -0.116231 0.679561 -0.055021 -0.510397 -1.041458 -0.494258 0.026173 -1.159172 -0.158320 0.175405 -0.981717 0.588760 0.034766 -0.233525 0.088211 -1.025063 -0.718734 0.292858 -0.420776 -0.476971 0.462011 0.117169 -0.758910 -0.668969 0.079349 -0.637855 -0.303239 1.141083 0.057872 -0.395498 -0.177490 0.655392 0.647684 -0.139335 -0.265250 -0.415665 -0.103342 -0.619004 0.599043 0.315611 -0.292273 -0.801003 1.118344 -1.068088 0.523369 -0.739162 -1.035300 -0.254279 -0.578134
types 0.039695 -0.449450 0.821808 -0.474063 -0.260269 -0.582690 -0.578359 0.590144 -0.114075 0.241910 0.402858 -0.930838 0.615736 -0.046584 0.098150 -0.077095 -0.672481 -0.443855 0.398525 0.799087 -0.600205 0.916536 0.883203 0.423063 0.167899 -0.506716 -0.083854 -0.833388 -0.597759 -0.694122 0.369388 0.394589 0.938329 0.607678 -0.025431 -0.315888 0.164473 0.136708 -1.372430 1.175510 0.333113 0.007480 0.268532 0.373077 0.351450 -0.048869 -0.580146 -1.330368 -0.014731 -0.722865
humans 0.733216 0.091552 0.562064 -0.647152 -1.146701 0.244130 -0.320511 0.902182 -0.241458 -0.407049 0.475593 0.170321 0.161316 0.464401 0.237410 0.193771 0.176376 -0.022063 0.202245 0.398967 -0.559519 -0.721366 0.059210 -0.430268 -0.533876 -0.557246 0.054626 -0.288826 -0.310108 -0.716236 0.534263 -0.226489 0.407157 0.843264 -1.052534 0.404871 -0.097898 -0.636558 0.506119 0.691858 0.741026 0.079727 -0.015526 -0.152816 0.072368 -0.189097 -0.648067 0.070789 0.354334 -0.271116
often 0.896585 -0.131322 0.422193 0.610466 -0.630453 0.566978 -0.374052 -0.109144 -0.257805 0.330610 0.143512 0.526386 0.310170 0.741895 -0.442399 -0.027057 -0.949799 -0.137151 0.482486 -0.013494 -0.542902 0.068453 -0.063098 0.190380 -0.409031 -0.601808 0.270146 -0.422114 0.036637 -0.355826 0.380377 0.444854 0.917235 0.335851 -0.515106 -0.032080 -0.074136 -0.363850 -0.412590 0.565274 0.641693 0.111420 -0.777699 -0.051700 -0.624036 -0.196187 0.166212 0.260280 0.042698 -0.277575
functions 0.744042 -0.723465 0.638899 0.669325 -0.855404 -0.146591 -1.144139 0.823622 -0.841895 0.246479 0.532099 -0.527349 0.299294 -0.210571 0.933654 0.151877 -0.320405 0.304016 -0.074693 0.412570 -0.525641 0.168573 0.337406 0.147620 -0.447230 -0.189091 0.350555 -0.024958 0.535874 -0.637112 0.623666 -0.495652 0.593534 0.910368 -0.806158 -0.467682 0.454194 0.011015 -1.058449 1.013588 0.259647 0.263428 1.091766 -0.025360 -0.299540 -0.198982 -0.217433 -0.181431 -0.255147 -0.586890
make 0.329548 0.359964 0.200491 0.195211 -0.734354 0.618102 -0.732795 0.777981 0.471510 -0.066399 0.009719 -0.944227 0.594966 0.385400 -0.029552 -0.465703 -0.674746 -0.257806 0.445994 0.091036 0.007997 0.481277 -0.108788 0.292525 -0.445287 -0.817754 -0.720746 -0.331281 -0.084279 -0.674100 0.958433 -0.477982 0.663758 0.450706 -0.745460 -0.622490 -0.511758 -0.155205 -0.090670 0.101440 0.502457 0.098869 0.228924 -0.099913 -0.566128 0.475565 -1.163890 0.255347 0.474906 -0.111998
common 0.367024 0.686289 0.571217 0.295850 -0.563835 -0.536050 -0.003231 -0.140648 -0.254785 0.244058 0.423060 -0.130097 0.396751 -0.639745 -0.799879 0.161706 0.336078 -0.821626 -0.353958 0.338426 -0.922028 -0.169340 -0.624862 0.496344 -0.384368 -0.328388 -0.557426 0.233425 -0.533843 -0.823298 1.036101 0.709345 0.867254 0.104254 -0.124302 0.223544 -0.434617 -0.804675 -0.232188 0.751472 1.498417 -1.203964 -0.358956 -0.492667 -0.540801 -0.315566 -0.420568 -0.426899 -0.259984 0.185440
male 0.160265 -1.120286 0.412555 -0.807980 0.279019 -0.214680 -1.172214 0.348312 0.026051 -0.123067 -0.513714 0.324191 0.509637 0.611719 1.316410 0.375146 -0.346601 0.311572 -0.463899 0.910340 -1.514899 0.462673 0.564066 -0.744507 -0.325286 0.397385 -0.193939 -0.577477 -0.263648 0.102167 0.292723 -0.021840 -1.222999 1.136080 -0.549820 0.978428 -0.644205 -0.409436 0.316570 -0.062900 -0.222574 -0.574658 -0.766266 0.647824 0.008835 -0.111484 0.506370 -0.446481 1.339088 0.275145
pressure -0.717699 -0.297407 0.325114 0.014359 -0.706019 -0.661530 -0.507756 -0.339112 -0.434774 0.045657 0.513639 0.430588 -0.775573 0.511254 -0.208132 0.592189 -0.955168 -0.979427 0.710136 -0.248524 0.186558 0.296246 0.946228 0.161686 -0.169563 0.219027 0.208118 0.390271 1.088356 0.355832 0.323049 -0.224266 -0.216300 -0.386153 -0.137275 0.621054 0.889549 -0.740073 -0.075741 0.371288 -0.715862 0.187817 -0.386648 2.032556 -0.285057 -1.467748 -0.796472 0.795991 -2.295342 -0.414150
although 0.478413 0.089124 0.434216 -0.315975 -0.639986 0.203283 0.063111 0.413519 -0.127716 0.152879 0.430434 0.210219 0.073321 -0.201856 -0.265190 0.260102 -0.114442 -0.276122 0.207880 0.384931 -0.758808 -0.091316 -0.111313 -0.103501 -0.621662 -0.437598 1.005186 -0.475839 -0.368690 -0.620931 0.495854 -0.133115 0.487849 0.626846 -0.499334 0.293891 -0.091270 -0.581506 0.077235 0.401763 0.625112 -0.652818 -0.595621 -0.259016 0.196680 -0.333305 -0.370340 -0.027882 -0.214920 -0.156101
populations 0.435680 0.502913 1.119843 -0.582718 -0.342921 0.382316 -0.019690 -0.304425 -0.414176 -0.375838 0.864753 0.368049 0.866233 1.077778 0.622760 1.069427 -0.676409 0.162082 0.044839 0.820534 -0.204651 -0.124017 -0.648293 0.131036 -1.361043 -0.020527 0.853604 -0.851360 -0.001786 -0.112773 0.967593 0.938859 -0.406925 -0.094903 -0.668087 0.638445 0.218775 0.078341 0.314039 0.862549 -0.377023 -0.301261 -0.516812 0.199737 0.444122 -1.192211 -0.809793 -0.224824 0.070827 -0.428600
co -1.601303 -0.716542 -0.344698 -0.506966 -0.666433 0.700463 -0.164735 0.552743 0.539892 0.983359 0.357870 0.355448 -1.207177 0.999040 -0.235166 -0.205808 0.028046 -0.237292 -0.274482 -0.246430 1.206894 0.615487 -0.060040 -0.104783 0.102381 -0.275971 -0.119318 -0.576898 0.143643 -0.674514 0.283589 -1.185126 -0.853262 1.029705 -0.160762 0.008625 0.382930 -1.085377 0.329872 -0.411067 0.936917 0.010987 0.143720 0.976158 0.446248 -0.243938 -0.603640 1.064580 -0.568369 -0.179725
action 0.293394 1.394490 0.987789 0.132065 0.377386 -1.883885 -0.855707 0.435374 1.135558 -0.470797 0.084270 0.609590 -0.910974 0.294377 0.009790 0.200708 -0.840503 -0.935707 -0.035309 0.072157 -0.777884 -0.281950 -0.384754 0.381932 0.396156 -1.107820 -1.223103 -0.110553 -0.015290 0.299769 0.325570 -0.518097 0.028675 -0.835874 -0.213555 0.315372 -0.217670 -0.342659 -0.258763 0.338765 -1.148638 -0.012218 0.115913 0.831388 -0.895589 -0.277466 -0.208321 -0.802841 -1.016501 -0.553397
signal 0.081907 -0.495888 0.099250 0.724677 0.841173 -0.842668 0.043474 0.427645 0.581406 0.699273 -0.593364 -0.505908 0.085260 0.658044 0.171926 -0.550329 0.422384 -0.222271 0.489037 -0.471306 -0.211379 0.478429 1.272350 0.920203 -0.473820 -1.366270 -0.384734 -0.629880 0.317220 -0.566406 0.275068 -0.941480 0.799824 0.464291 -0.210549 0.843548 -0.919316 0.547229 -1.111292 0.206567 0.234669 0.275854 -0.892226 -0.198276 -0.950031 -0.528574 0.488251 0.017221 -0.985251 -0.274852
concentration -0.732302 -1.136166 -0.233020 -0.234668 0.468169 0.826506 -0.960443 0.206173 -0.463507 0.314754 0.354348 0.475313 -1.053623 0.604700 -0.172672 0.768266 -0.976261 -1.555917 -0.130026 0.377620 0.892266 -0.454295 0.726928 0.286868 0.120525 -0.366150 0.688861 0.036804 1.119183 -1.182383 0.368924 -1.017643 -0.837052 0.241435 0.433836 1.216479 -0.056475 -0.953258 -0.458018 -0.300127 -0.382090 -0.160294 0.714698 0.445779 0.545415 -1.293964 -0.476071 0.241925 -1.096990 -0.372293
reactions -0.648739 -1.260333 1.300107 -0.340654 -0.015991 0.703893 -0.298474 -0.029944 0.562713 0.582256 -0.368560 -0.148721 -0.179669 0.864852 -0.545827 -1.051219 -0.259072 -0.678849 -0.860317 0.132327 -0.569571 0.644597 -0.485369 0.266651 -0.118662 -1.392925 -0.266692 0.064046 -1.168805 -1.220182 0.542610 -0.453125 0.463772 -0.376994 -1.184512 0.294179 -0.291811 -0.096349 -0.852132 -0.854491 -0.147128 1.204165 -0.263527 -0.577753 -0.351502 0.732114 -0.220482 -0.041175 -1.330501 0.312283
end -0.376543 -0.368228 0.637572 0.546279 0.384481 -1.133842 0.486794 -0.814127 -0.324463 0.954303 0.261227 -0.653478 -0.811408 0.832328 -0.180205 -0.793232 -0.518033 -0.541029 -0.762667 0.282253 -0.347346 -0.297588 -0.132118 -0.721549 0.998890 -0.174189 -0.987732 -0.321608 0.294961 -0.975754 0.876023 -0.683285 0.240185 0.610059 0.778136 -0.976405 -0.464948 -0.774018 0.058648 0.640423 0.995694 -0.253358 0.001401 1.381740 -0.646206 -0.430837 0.498566 0.100326 -0.787651 -0.462689
reaction -0.904303 -0.784629 0.299254 0.072877 0.076438 0.411562 -0.570443 -0.224726 -0.012193 0.882497 -0.535607 -0.105346 -0.086947 1.161453 -0.656473 -0.711365 -0.362792 -0.453682 -0.260049 0.260657 -0.453042 0.491106 -0.090457 -0.306925 0.024557 -1.092617 -0.624066 -0.236774 -0.557498 -1.381095 0.653956 -1.478761 -0.532348 -0.317592 -0.192016 1.281735 -0.840760 0.080305 0.533252 -1.201202 0.089234 0.185136 -0.932258 -0.165237 -0.823533 -0.237821 -0.047678 0.316727 -1.218735 0.461388
tissues -0.470728 -0.098175 0.599697 -0.238491 -0.697721 -0.198330 -0.944849 0.573988 -0.728924 0.521475 0.720100 -0.430196 0.008594 -0.097415 0.504578 -0.001891 -0.848659 -0.135274 0.289603 -0.016623 0.051180 0.603040 0.041577 -0.729569 -0.422082 0.052054 0.179344 -0.299292 0.811888 0.278624 -0.381984 -0.214931 0.466905 1.127760 -0.256562 -0.943612 0.262220 -0.546278 -0.881485 0.786575 0.762700 0.028816 0.141733 1.047785 -1.043154 0.117534 -0.825869 -0.563128 0.160750 -0.819220
